digraph Tree {
node [shape=box, style="filled, rounded", color="black", fontname="helvetica"] ;
edge [fontname="helvetica"] ;
0 [label="num__age <= -0.85\ngini = 0.45\nsamples = 8550\nvalue = [2920, 5630]\nclass = low", fillcolor="#a0d0f2"] ;
1 [label="num__age <= -1.24\ngini = 0.18\nsamples = 2163\nvalue = [215.0, 1948.0]\nclass = low", fillcolor="#4fa8e8"] ;
0 -> 1 [labeldistance=2.5, labelangle=45, headlabel="True"] ;
2 [label="cat__occupation_Repair/Maintenance <= 0.5\ngini = 0.03\nsamples = 1128\nvalue = [20, 1108]\nclass = low", fillcolor="#3d9fe5"] ;
1 -> 2 ;
3 [label="cat__occupation_Science, Engineering, Technology <= 0.5\ngini = 0.03\nsamples = 1095\nvalue = [15, 1080]\nclass = low", fillcolor="#3c9ee5"] ;
2 -> 3 ;
4 [label="cat__occupation_Finance/Accounting <= 0.5\ngini = 0.02\nsamples = 1059\nvalue = [11, 1048]\nclass = low", fillcolor="#3b9ee5"] ;
3 -> 4 ;
5 [label="num__workinghours <= 0.78\ngini = 0.02\nsamples = 1056\nvalue = [10, 1046]\nclass = low", fillcolor="#3b9ee5"] ;
4 -> 5 ;
6 [label="cat__education_21 <= 0.5\ngini = 0.01\nsamples = 987\nvalue = [5, 982]\nclass = low", fillcolor="#3a9de5"] ;
5 -> 6 ;
7 [label="cat__occupation_Construction/Extraction <= 0.5\ngini = 0.01\nsamples = 931\nvalue = [3, 928]\nclass = low", fillcolor="#3a9de5"] ;
6 -> 7 ;
8 [label="num__workinghours <= 0.42\ngini = 0.0\nsamples = 874\nvalue = [1, 873]\nclass = low", fillcolor="#399de5"] ;
7 -> 8 ;
9 [label="gini = 0.0\nsamples = 853\nvalue = [0, 853]\nclass = low", fillcolor="#399de5"] ;
8 -> 9 ;
10 [label="cat__education_18 <= 0.5\ngini = 0.09\nsamples = 21\nvalue = [1, 20]\nclass = low", fillcolor="#43a2e6"] ;
8 -> 10 ;
11 [label="gini = 0.0\nsamples = 20\nvalue = [0, 20]\nclass = low", fillcolor="#399de5"] ;
10 -> 11 ;
12 [label="gini = 0.0\nsamples = 1\nvalue = [1, 0]\nclass = high", fillcolor="#e58139"] ;
10 -> 12 ;
13 [label="cat__education_19 <= 0.5\ngini = 0.07\nsamples = 57\nvalue = [2, 55]\nclass = low", fillcolor="#40a1e6"] ;
7 -> 13 ;
14 [label="num__age <= -1.57\ngini = 0.04\nsamples = 47\nvalue = [1, 46]\nclass = low", fillcolor="#3d9fe6"] ;
13 -> 14 ;
15 [label="num__workinghours <= -0.14\ngini = 0.13\nsamples = 14\nvalue = [1, 13]\nclass = low", fillcolor="#48a5e7"] ;
14 -> 15 ;
16 [label="gini = 0.0\nsamples = 8\nvalue = [0, 8]\nclass = low", fillcolor="#399de5"] ;
15 -> 16 ;
17 [label="cat__education_16 <= 0.5\ngini = 0.28\nsamples = 6\nvalue = [1, 5]\nclass = low", fillcolor="#61b1ea"] ;
15 -> 17 ;
18 [label="gini = 0.0\nsamples = 3\nvalue = [0, 3]\nclass = low", fillcolor="#399de5"] ;
17 -> 18 ;
19 [label="gini = 0.44\nsamples = 3\nvalue = [1, 2]\nclass = low", fillcolor="#9ccef2"] ;
17 -> 19 ;
20 [label="gini = 0.0\nsamples = 33\nvalue = [0, 33]\nclass = low", fillcolor="#399de5"] ;
14 -> 20 ;
21 [label="num__age <= -1.47\ngini = 0.18\nsamples = 10\nvalue = [1, 9]\nclass = low", fillcolor="#4fa8e8"] ;
13 -> 21 ;
22 [label="gini = 0.0\nsamples = 7\nvalue = [0, 7]\nclass = low", fillcolor="#399de5"] ;
21 -> 22 ;
23 [label="num__workinghours <= -0.14\ngini = 0.44\nsamples = 3\nvalue = [1, 2]\nclass = low", fillcolor="#9ccef2"] ;
21 -> 23 ;
24 [label="gini = 0.0\nsamples = 2\nvalue = [0, 2]\nclass = low", fillcolor="#399de5"] ;
23 -> 24 ;
25 [label="gini = 0.0\nsamples = 1\nvalue = [1, 0]\nclass = high", fillcolor="#e58139"] ;
23 -> 25 ;
26 [label="cat__occupation_Service/Hospitality <= 0.5\ngini = 0.07\nsamples = 56\nvalue = [2, 54]\nclass = low", fillcolor="#40a1e6"] ;
6 -> 26 ;
27 [label="num__age <= -1.44\ngini = 0.04\nsamples = 52\nvalue = [1, 51]\nclass = low", fillcolor="#3d9fe6"] ;
26 -> 27 ;
28 [label="cat__occupation_Entertainment <= 0.5\ngini = 0.38\nsamples = 4\nvalue = [1, 3]\nclass = low", fillcolor="#7bbeee"] ;
27 -> 28 ;
29 [label="gini = 0.0\nsamples = 3\nvalue = [0, 3]\nclass = low", fillcolor="#399de5"] ;
28 -> 29 ;
30 [label="gini = 0.0\nsamples = 1\nvalue = [1, 0]\nclass = high", fillcolor="#e58139"] ;
28 -> 30 ;
31 [label="gini = 0.0\nsamples = 48\nvalue = [0, 48]\nclass = low", fillcolor="#399de5"] ;
27 -> 31 ;
32 [label="num__workinghours <= -0.34\ngini = 0.38\nsamples = 4\nvalue = [1, 3]\nclass = low", fillcolor="#7bbeee"] ;
26 -> 32 ;
33 [label="gini = 0.0\nsamples = 2\nvalue = [0, 2]\nclass = low", fillcolor="#399de5"] ;
32 -> 33 ;
34 [label="num__age <= -1.34\ngini = 0.5\nsamples = 2\nvalue = [1, 1]\nclass = high", fillcolor="#ffffff"] ;
32 -> 34 ;
35 [label="gini = 0.0\nsamples = 1\nvalue = [0, 1]\nclass = low", fillcolor="#399de5"] ;
34 -> 35 ;
36 [label="gini = 0.0\nsamples = 1\nvalue = [1, 0]\nclass = high", fillcolor="#e58139"] ;
34 -> 36 ;
37 [label="num__age <= -1.37\ngini = 0.13\nsamples = 69\nvalue = [5, 64]\nclass = low", fillcolor="#48a5e7"] ;
5 -> 37 ;
38 [label="gini = 0.0\nsamples = 38\nvalue = [0, 38]\nclass = low", fillcolor="#399de5"] ;
37 -> 38 ;
39 [label="cat__ability to speak english_3.0 <= 0.5\ngini = 0.27\nsamples = 31\nvalue = [5, 26]\nclass = low", fillcolor="#5fb0ea"] ;
37 -> 39 ;
40 [label="num__workinghours <= 1.14\ngini = 0.24\nsamples = 29\nvalue = [4, 25]\nclass = low", fillcolor="#59ade9"] ;
39 -> 40 ;
41 [label="cat__education_15 <= 0.5\ngini = 0.1\nsamples = 18\nvalue = [1, 17]\nclass = low", fillcolor="#45a3e7"] ;
40 -> 41 ;
42 [label="gini = 0.0\nsamples = 16\nvalue = [0, 16]\nclass = low", fillcolor="#399de5"] ;
41 -> 42 ;
43 [label="cat__occupation_Construction/Extraction <= 0.5\ngini = 0.5\nsamples = 2\nvalue = [1, 1]\nclass = high", fillcolor="#ffffff"] ;
41 -> 43 ;
44 [label="gini = 0.0\nsamples = 1\nvalue = [0, 1]\nclass = low", fillcolor="#399de5"] ;
43 -> 44 ;
45 [label="gini = 0.0\nsamples = 1\nvalue = [1, 0]\nclass = high", fillcolor="#e58139"] ;
43 -> 45 ;
46 [label="cat__marital status_Married <= 0.5\ngini = 0.4\nsamples = 11\nvalue = [3, 8]\nclass = low", fillcolor="#83c2ef"] ;
40 -> 46 ;
47 [label="cat__occupation_Transport <= 0.5\ngini = 0.32\nsamples = 10\nvalue = [2, 8]\nclass = low", fillcolor="#6ab6ec"] ;
46 -> 47 ;
48 [label="cat__education_21 <= 0.5\ngini = 0.2\nsamples = 9\nvalue = [1, 8]\nclass = low", fillcolor="#52a9e8"] ;
47 -> 48 ;
49 [label="gini = 0.0\nsamples = 7\nvalue = [0, 7]\nclass = low", fillcolor="#399de5"] ;
48 -> 49 ;
50 [label="cat__workclass_private <= 0.5\ngini = 0.5\nsamples = 2\nvalue = [1, 1]\nclass = high", fillcolor="#ffffff"] ;
48 -> 50 ;
51 [label="gini = 0.0\nsamples = 1\nvalue = [0, 1]\nclass = low", fillcolor="#399de5"] ;
50 -> 51 ;
52 [label="gini = 0.0\nsamples = 1\nvalue = [1, 0]\nclass = high", fillcolor="#e58139"] ;
50 -> 52 ;
53 [label="gini = 0.0\nsamples = 1\nvalue = [1, 0]\nclass = high", fillcolor="#e58139"] ;
47 -> 53 ;
54 [label="gini = 0.0\nsamples = 1\nvalue = [1, 0]\nclass = high", fillcolor="#e58139"] ;
46 -> 54 ;
55 [label="cat__workclass_governmental <= 0.5\ngini = 0.5\nsamples = 2\nvalue = [1, 1]\nclass = high", fillcolor="#ffffff"] ;
39 -> 55 ;
56 [label="gini = 0.0\nsamples = 1\nvalue = [1, 0]\nclass = high", fillcolor="#e58139"] ;
55 -> 56 ;
57 [label="gini = 0.0\nsamples = 1\nvalue = [0, 1]\nclass = low", fillcolor="#399de5"] ;
55 -> 57 ;
58 [label="cat__education_21 <= 0.5\ngini = 0.44\nsamples = 3\nvalue = [1, 2]\nclass = low", fillcolor="#9ccef2"] ;
4 -> 58 ;
59 [label="gini = 0.0\nsamples = 1\nvalue = [1, 0]\nclass = high", fillcolor="#e58139"] ;
58 -> 59 ;
60 [label="gini = 0.0\nsamples = 2\nvalue = [0, 2]\nclass = low", fillcolor="#399de5"] ;
58 -> 60 ;
61 [label="num__age <= -1.37\ngini = 0.2\nsamples = 36\nvalue = [4, 32]\nclass = low", fillcolor="#52a9e8"] ;
3 -> 61 ;
62 [label="gini = 0.0\nsamples = 25\nvalue = [0, 25]\nclass = low", fillcolor="#399de5"] ;
61 -> 62 ;
63 [label="cat__marital status_Married <= 0.5\ngini = 0.46\nsamples = 11\nvalue = [4, 7]\nclass = low", fillcolor="#aad5f4"] ;
61 -> 63 ;
64 [label="cat__workclass_private <= 0.5\ngini = 0.49\nsamples = 7\nvalue = [4, 3]\nclass = high", fillcolor="#f8e0ce"] ;
63 -> 64 ;
65 [label="gini = 0.0\nsamples = 1\nvalue = [0, 1]\nclass = low", fillcolor="#399de5"] ;
64 -> 65 ;
66 [label="cat__education_22 <= 0.5\ngini = 0.44\nsamples = 6\nvalue = [4, 2]\nclass = high", fillcolor="#f2c09c"] ;
64 -> 66 ;
67 [label="cat__education_19 <= 0.5\ngini = 0.48\nsamples = 5\nvalue = [3, 2]\nclass = high", fillcolor="#f6d5bd"] ;
66 -> 67 ;
68 [label="gini = 0.44\nsamples = 3\nvalue = [2, 1]\nclass = high", fillcolor="#f2c09c"] ;
67 -> 68 ;
69 [label="gini = 0.5\nsamples = 2\nvalue = [1, 1]\nclass = high", fillcolor="#ffffff"] ;
67 -> 69 ;
70 [label="gini = 0.0\nsamples = 1\nvalue = [1, 0]\nclass = high", fillcolor="#e58139"] ;
66 -> 70 ;
71 [label="gini = 0.0\nsamples = 4\nvalue = [0, 4]\nclass = low", fillcolor="#399de5"] ;
63 -> 71 ;
72 [label="cat__education_18 <= 0.5\ngini = 0.26\nsamples = 33\nvalue = [5, 28]\nclass = low", fillcolor="#5caeea"] ;
2 -> 72 ;
73 [label="cat__education_19 <= 0.5\ngini = 0.13\nsamples = 28\nvalue = [2, 26]\nclass = low", fillcolor="#48a5e7"] ;
72 -> 73 ;
74 [label="gini = 0.0\nsamples = 20\nvalue = [0, 20]\nclass = low", fillcolor="#399de5"] ;
73 -> 74 ;
75 [label="num__age <= -1.41\ngini = 0.38\nsamples = 8\nvalue = [2, 6]\nclass = low", fillcolor="#7bbeee"] ;
73 -> 75 ;
76 [label="gini = 0.0\nsamples = 5\nvalue = [0, 5]\nclass = low", fillcolor="#399de5"] ;
75 -> 76 ;
77 [label="num__workinghours <= -0.02\ngini = 0.44\nsamples = 3\nvalue = [2, 1]\nclass = high", fillcolor="#f2c09c"] ;
75 -> 77 ;
78 [label="gini = 0.0\nsamples = 1\nvalue = [0, 1]\nclass = low", fillcolor="#399de5"] ;
77 -> 78 ;
79 [label="gini = 0.0\nsamples = 2\nvalue = [2, 0]\nclass = high", fillcolor="#e58139"] ;
77 -> 79 ;
80 [label="num__age <= -1.37\ngini = 0.48\nsamples = 5\nvalue = [3, 2]\nclass = high", fillcolor="#f6d5bd"] ;
72 -> 80 ;
81 [label="gini = 0.0\nsamples = 2\nvalue = [2, 0]\nclass = high", fillcolor="#e58139"] ;
80 -> 81 ;
82 [label="num__workinghours <= 0.54\ngini = 0.44\nsamples = 3\nvalue = [1, 2]\nclass = low", fillcolor="#9ccef2"] ;
80 -> 82 ;
83 [label="gini = 0.0\nsamples = 2\nvalue = [0, 2]\nclass = low", fillcolor="#399de5"] ;
82 -> 83 ;
84 [label="gini = 0.0\nsamples = 1\nvalue = [1, 0]\nclass = high", fillcolor="#e58139"] ;
82 -> 84 ;
85 [label="num__workinghours <= 0.34\ngini = 0.31\nsamples = 1035\nvalue = [195, 840]\nclass = low", fillcolor="#67b4eb"] ;
1 -> 85 ;
86 [label="cat__occupation_Science, Engineering, Technology <= 0.5\ngini = 0.24\nsamples = 771\nvalue = [105.0, 666.0]\nclass = low", fillcolor="#58ace9"] ;
85 -> 86 ;
87 [label="cat__occupation_Repair/Maintenance <= 0.5\ngini = 0.2\nsamples = 726\nvalue = [84, 642]\nclass = low", fillcolor="#53aae8"] ;
86 -> 87 ;
88 [label="cat__occupation_Finance/Accounting <= 0.5\ngini = 0.19\nsamples = 687\nvalue = [71, 616]\nclass = low", fillcolor="#50a8e8"] ;
87 -> 88 ;
89 [label="cat__marital status_Married <= 0.5\ngini = 0.18\nsamples = 678\nvalue = [66, 612]\nclass = low", fillcolor="#4ea8e8"] ;
88 -> 89 ;
90 [label="cat__occupation_Healthcare/Medical Services <= 0.5\ngini = 0.11\nsamples = 397\nvalue = [24, 373]\nclass = low", fillcolor="#46a3e7"] ;
89 -> 90 ;
91 [label="cat__occupation_Management/Business <= 0.5\ngini = 0.09\nsamples = 356\nvalue = [17, 339]\nclass = low", fillcolor="#43a2e6"] ;
90 -> 91 ;
92 [label="cat__education_19 <= 0.5\ngini = 0.08\nsamples = 330\nvalue = [13.0, 317.0]\nclass = low", fillcolor="#41a1e6"] ;
91 -> 92 ;
93 [label="num__age <= -1.05\ngini = 0.05\nsamples = 269\nvalue = [7, 262]\nclass = low", fillcolor="#3ea0e6"] ;
92 -> 93 ;
94 [label="cat__marital status_Separated <= 0.5\ngini = 0.08\nsamples = 145\nvalue = [6, 139]\nclass = low", fillcolor="#42a1e6"] ;
93 -> 94 ;
95 [label="cat__education_12 <= 0.5\ngini = 0.07\nsamples = 142\nvalue = [5, 137]\nclass = low", fillcolor="#40a1e6"] ;
94 -> 95 ;
96 [label="cat__education_1 <= 0.5\ngini = 0.06\nsamples = 138\nvalue = [4, 134]\nclass = low", fillcolor="#3fa0e6"] ;
95 -> 96 ;
97 [label="num__age <= -1.18\ngini = 0.04\nsamples = 132\nvalue = [3, 129]\nclass = low", fillcolor="#3e9fe6"] ;
96 -> 97 ;
98 [label="gini = 0.0\nsamples = 55\nvalue = [0, 55]\nclass = low", fillcolor="#399de5"] ;
97 -> 98 ;
99 [label="num__workinghours <= -0.02\ngini = 0.07\nsamples = 77\nvalue = [3, 74]\nclass = low", fillcolor="#41a1e6"] ;
97 -> 99 ;
100 [label="gini = 0.0\nsamples = 29\nvalue = [0, 29]\nclass = low", fillcolor="#399de5"] ;
99 -> 100 ;
101 [label="cat__education_20 <= 0.5\ngini = 0.12\nsamples = 48\nvalue = [3, 45]\nclass = low", fillcolor="#46a4e7"] ;
99 -> 101 ;
102 [label="cat__occupation_Transport <= 0.5\ngini = 0.08\nsamples = 45\nvalue = [2, 43]\nclass = low", fillcolor="#42a2e6"] ;
101 -> 102 ;
103 [label="cat__occupation_Production/Assembly <= 0.5\ngini = 0.05\nsamples = 38\nvalue = [1, 37]\nclass = low", fillcolor="#3ea0e6"] ;
102 -> 103 ;
104 [label="gini = 0.0\nsamples = 25\nvalue = [0, 25]\nclass = low", fillcolor="#399de5"] ;
103 -> 104 ;
105 [label="num__age <= -1.11\ngini = 0.14\nsamples = 13\nvalue = [1, 12]\nclass = low", fillcolor="#49a5e7"] ;
103 -> 105 ;
106 [label="cat__education_16 <= 0.5\ngini = 0.24\nsamples = 7\nvalue = [1, 6]\nclass = low", fillcolor="#5aade9"] ;
105 -> 106 ;
107 [label="gini = 0.0\nsamples = 3\nvalue = [0, 3]\nclass = low", fillcolor="#399de5"] ;
106 -> 107 ;
108 [label="cat__ability to speak english_3.0 <= 0.5\ngini = 0.38\nsamples = 4\nvalue = [1, 3]\nclass = low", fillcolor="#7bbeee"] ;
106 -> 108 ;
109 [label="gini = 0.44\nsamples = 3\nvalue = [1, 2]\nclass = low", fillcolor="#9ccef2"] ;
108 -> 109 ;
110 [label="gini = 0.0\nsamples = 1\nvalue = [0, 1]\nclass = low", fillcolor="#399de5"] ;
108 -> 110 ;
111 [label="gini = 0.0\nsamples = 6\nvalue = [0, 6]\nclass = low", fillcolor="#399de5"] ;
105 -> 111 ;
112 [label="cat__education_18 <= 0.5\ngini = 0.24\nsamples = 7\nvalue = [1, 6]\nclass = low", fillcolor="#5aade9"] ;
102 -> 112 ;
113 [label="gini = 0.0\nsamples = 5\nvalue = [0, 5]\nclass = low", fillcolor="#399de5"] ;
112 -> 113 ;
114 [label="gini = 0.5\nsamples = 2\nvalue = [1, 1]\nclass = high", fillcolor="#ffffff"] ;
112 -> 114 ;
115 [label="cat__occupation_Sales <= 0.5\ngini = 0.44\nsamples = 3\nvalue = [1, 2]\nclass = low", fillcolor="#9ccef2"] ;
101 -> 115 ;
116 [label="gini = 0.0\nsamples = 2\nvalue = [0, 2]\nclass = low", fillcolor="#399de5"] ;
115 -> 116 ;
117 [label="gini = 0.0\nsamples = 1\nvalue = [1, 0]\nclass = high", fillcolor="#e58139"] ;
115 -> 117 ;
118 [label="num__age <= -1.11\ngini = 0.28\nsamples = 6\nvalue = [1, 5]\nclass = low", fillcolor="#61b1ea"] ;
96 -> 118 ;
119 [label="gini = 0.0\nsamples = 4\nvalue = [0, 4]\nclass = low", fillcolor="#399de5"] ;
118 -> 119 ;
120 [label="cat__occupation_Service/Hospitality <= 0.5\ngini = 0.5\nsamples = 2\nvalue = [1, 1]\nclass = high", fillcolor="#ffffff"] ;
118 -> 120 ;
121 [label="gini = 0.0\nsamples = 1\nvalue = [1, 0]\nclass = high", fillcolor="#e58139"] ;
120 -> 121 ;
122 [label="gini = 0.0\nsamples = 1\nvalue = [0, 1]\nclass = low", fillcolor="#399de5"] ;
120 -> 122 ;
123 [label="cat__occupation_Sales <= 0.5\ngini = 0.38\nsamples = 4\nvalue = [1, 3]\nclass = low", fillcolor="#7bbeee"] ;
95 -> 123 ;
124 [label="gini = 0.0\nsamples = 3\nvalue = [0, 3]\nclass = low", fillcolor="#399de5"] ;
123 -> 124 ;
125 [label="gini = 0.0\nsamples = 1\nvalue = [1, 0]\nclass = high", fillcolor="#e58139"] ;
123 -> 125 ;
126 [label="cat__occupation_Construction/Extraction <= 0.5\ngini = 0.44\nsamples = 3\nvalue = [1, 2]\nclass = low", fillcolor="#9ccef2"] ;
94 -> 126 ;
127 [label="gini = 0.0\nsamples = 2\nvalue = [0, 2]\nclass = low", fillcolor="#399de5"] ;
126 -> 127 ;
128 [label="gini = 0.0\nsamples = 1\nvalue = [1, 0]\nclass = high", fillcolor="#e58139"] ;
126 -> 128 ;
129 [label="cat__education_21 <= 0.5\ngini = 0.02\nsamples = 124\nvalue = [1, 123]\nclass = low", fillcolor="#3b9ee5"] ;
93 -> 129 ;
130 [label="gini = 0.0\nsamples = 105\nvalue = [0, 105]\nclass = low", fillcolor="#399de5"] ;
129 -> 130 ;
131 [label="num__workinghours <= -0.66\ngini = 0.1\nsamples = 19\nvalue = [1, 18]\nclass = low", fillcolor="#44a2e6"] ;
129 -> 131 ;
132 [label="cat__occupation_Service/Hospitality <= 0.5\ngini = 0.5\nsamples = 2\nvalue = [1, 1]\nclass = high", fillcolor="#ffffff"] ;
131 -> 132 ;
133 [label="gini = 0.0\nsamples = 1\nvalue = [0, 1]\nclass = low", fillcolor="#399de5"] ;
132 -> 133 ;
134 [label="gini = 0.0\nsamples = 1\nvalue = [1, 0]\nclass = high", fillcolor="#e58139"] ;
132 -> 134 ;
135 [label="gini = 0.0\nsamples = 17\nvalue = [0, 17]\nclass = low", fillcolor="#399de5"] ;
131 -> 135 ;
136 [label="cat__occupation_Construction/Extraction <= 0.5\ngini = 0.18\nsamples = 61\nvalue = [6, 55]\nclass = low", fillcolor="#4fa8e8"] ;
92 -> 136 ;
137 [label="cat__occupation_Education <= 0.5\ngini = 0.15\nsamples = 60\nvalue = [5, 55]\nclass = low", fillcolor="#4ba6e7"] ;
136 -> 137 ;
138 [label="cat__workclass_self employed <= 0.5\ngini = 0.13\nsamples = 58\nvalue = [4, 54]\nclass = low", fillcolor="#48a4e7"] ;
137 -> 138 ;
139 [label="cat__marital status_Divorced <= 0.5\ngini = 0.1\nsamples = 55\nvalue = [3, 52]\nclass = low", fillcolor="#44a3e6"] ;
138 -> 139 ;
140 [label="cat__occupation_Transport <= 0.5\ngini = 0.08\nsamples = 50\nvalue = [2, 48]\nclass = low", fillcolor="#41a1e6"] ;
139 -> 140 ;
141 [label="cat__occupation_Sales <= 0.5\ngini = 0.04\nsamples = 45\nvalue = [1, 44]\nclass = low", fillcolor="#3d9fe6"] ;
140 -> 141 ;
142 [label="gini = 0.0\nsamples = 39\nvalue = [0, 39]\nclass = low", fillcolor="#399de5"] ;
141 -> 142 ;
143 [label="num__age <= -1.15\ngini = 0.28\nsamples = 6\nvalue = [1, 5]\nclass = low", fillcolor="#61b1ea"] ;
141 -> 143 ;
144 [label="gini = 0.0\nsamples = 3\nvalue = [0, 3]\nclass = low", fillcolor="#399de5"] ;
143 -> 144 ;
145 [label="num__age <= -1.02\ngini = 0.44\nsamples = 3\nvalue = [1, 2]\nclass = low", fillcolor="#9ccef2"] ;
143 -> 145 ;
146 [label="gini = 0.0\nsamples = 1\nvalue = [1, 0]\nclass = high", fillcolor="#e58139"] ;
145 -> 146 ;
147 [label="gini = 0.0\nsamples = 2\nvalue = [0, 2]\nclass = low", fillcolor="#399de5"] ;
145 -> 147 ;
148 [label="num__age <= -1.18\ngini = 0.32\nsamples = 5\nvalue = [1, 4]\nclass = low", fillcolor="#6ab6ec"] ;
140 -> 148 ;
149 [label="gini = 0.0\nsamples = 1\nvalue = [1, 0]\nclass = high", fillcolor="#e58139"] ;
148 -> 149 ;
150 [label="gini = 0.0\nsamples = 4\nvalue = [0, 4]\nclass = low", fillcolor="#399de5"] ;
148 -> 150 ;
151 [label="cat__occupation_Production/Assembly <= 0.5\ngini = 0.32\nsamples = 5\nvalue = [1, 4]\nclass = low", fillcolor="#6ab6ec"] ;
139 -> 151 ;
152 [label="gini = 0.0\nsamples = 4\nvalue = [0, 4]\nclass = low", fillcolor="#399de5"] ;
151 -> 152 ;
153 [label="gini = 0.0\nsamples = 1\nvalue = [1, 0]\nclass = high", fillcolor="#e58139"] ;
151 -> 153 ;
154 [label="num__workinghours <= -0.14\ngini = 0.44\nsamples = 3\nvalue = [1, 2]\nclass = low", fillcolor="#9ccef2"] ;
138 -> 154 ;
155 [label="gini = 0.0\nsamples = 1\nvalue = [1, 0]\nclass = high", fillcolor="#e58139"] ;
154 -> 155 ;
156 [label="gini = 0.0\nsamples = 2\nvalue = [0, 2]\nclass = low", fillcolor="#399de5"] ;
154 -> 156 ;
157 [label="cat__workclass_private <= 0.5\ngini = 0.5\nsamples = 2\nvalue = [1, 1]\nclass = high", fillcolor="#ffffff"] ;
137 -> 157 ;
158 [label="gini = 0.0\nsamples = 1\nvalue = [1, 0]\nclass = high", fillcolor="#e58139"] ;
157 -> 158 ;
159 [label="gini = 0.0\nsamples = 1\nvalue = [0, 1]\nclass = low", fillcolor="#399de5"] ;
157 -> 159 ;
160 [label="gini = 0.0\nsamples = 1\nvalue = [1, 0]\nclass = high", fillcolor="#e58139"] ;
136 -> 160 ;
161 [label="num__age <= -1.18\ngini = 0.26\nsamples = 26\nvalue = [4, 22]\nclass = low", fillcolor="#5dafea"] ;
91 -> 161 ;
162 [label="gini = 0.0\nsamples = 8\nvalue = [0, 8]\nclass = low", fillcolor="#399de5"] ;
161 -> 162 ;
163 [label="cat__ability to speak english_1.0 <= 0.5\ngini = 0.35\nsamples = 18\nvalue = [4, 14]\nclass = low", fillcolor="#72b9ec"] ;
161 -> 163 ;
164 [label="num__age <= -0.92\ngini = 0.29\nsamples = 17\nvalue = [3, 14]\nclass = low", fillcolor="#63b2eb"] ;
163 -> 164 ;
165 [label="cat__education_21 <= 0.5\ngini = 0.23\nsamples = 15\nvalue = [2, 13]\nclass = low", fillcolor="#57ace9"] ;
164 -> 165 ;
166 [label="gini = 0.0\nsamples = 10\nvalue = [0, 10]\nclass = low", fillcolor="#399de5"] ;
165 -> 166 ;
167 [label="num__age <= -0.98\ngini = 0.48\nsamples = 5\nvalue = [2, 3]\nclass = low", fillcolor="#bddef6"] ;
165 -> 167 ;
168 [label="cat__workclass_governmental <= 0.5\ngini = 0.44\nsamples = 3\nvalue = [2, 1]\nclass = high", fillcolor="#f2c09c"] ;
167 -> 168 ;
169 [label="gini = 0.0\nsamples = 2\nvalue = [2, 0]\nclass = high", fillcolor="#e58139"] ;
168 -> 169 ;
170 [label="gini = 0.0\nsamples = 1\nvalue = [0, 1]\nclass = low", fillcolor="#399de5"] ;
168 -> 170 ;
171 [label="gini = 0.0\nsamples = 2\nvalue = [0, 2]\nclass = low", fillcolor="#399de5"] ;
167 -> 171 ;
172 [label="cat__education_21 <= 0.5\ngini = 0.5\nsamples = 2\nvalue = [1, 1]\nclass = high", fillcolor="#ffffff"] ;
164 -> 172 ;
173 [label="gini = 0.0\nsamples = 1\nvalue = [1, 0]\nclass = high", fillcolor="#e58139"] ;
172 -> 173 ;
174 [label="gini = 0.0\nsamples = 1\nvalue = [0, 1]\nclass = low", fillcolor="#399de5"] ;
172 -> 174 ;
175 [label="gini = 0.0\nsamples = 1\nvalue = [1, 0]\nclass = high", fillcolor="#e58139"] ;
163 -> 175 ;
176 [label="num__age <= -0.92\ngini = 0.28\nsamples = 41\nvalue = [7.0, 34.0]\nclass = low", fillcolor="#62b1ea"] ;
90 -> 176 ;
177 [label="cat__education_24 <= 0.5\ngini = 0.16\nsamples = 34\nvalue = [3, 31]\nclass = low", fillcolor="#4ca6e8"] ;
176 -> 177 ;
178 [label="num__age <= -1.18\ngini = 0.11\nsamples = 33\nvalue = [2, 31]\nclass = low", fillcolor="#46a3e7"] ;
177 -> 178 ;
179 [label="cat__education_21 <= 0.5\ngini = 0.44\nsamples = 6\nvalue = [2, 4]\nclass = low", fillcolor="#9ccef2"] ;
178 -> 179 ;
180 [label="gini = 0.0\nsamples = 3\nvalue = [0, 3]\nclass = low", fillcolor="#399de5"] ;
179 -> 180 ;
181 [label="num__workinghours <= -0.1\ngini = 0.44\nsamples = 3\nvalue = [2, 1]\nclass = high", fillcolor="#f2c09c"] ;
179 -> 181 ;
182 [label="gini = 0.5\nsamples = 2\nvalue = [1, 1]\nclass = high", fillcolor="#ffffff"] ;
181 -> 182 ;
183 [label="gini = 0.0\nsamples = 1\nvalue = [1, 0]\nclass = high", fillcolor="#e58139"] ;
181 -> 183 ;
184 [label="gini = 0.0\nsamples = 27\nvalue = [0, 27]\nclass = low", fillcolor="#399de5"] ;
178 -> 184 ;
185 [label="gini = 0.0\nsamples = 1\nvalue = [1, 0]\nclass = high", fillcolor="#e58139"] ;
177 -> 185 ;
186 [label="cat__education_19 <= 0.5\ngini = 0.49\nsamples = 7\nvalue = [4, 3]\nclass = high", fillcolor="#f8e0ce"] ;
176 -> 186 ;
187 [label="cat__education_20 <= 0.5\ngini = 0.44\nsamples = 6\nvalue = [4, 2]\nclass = high", fillcolor="#f2c09c"] ;
186 -> 187 ;
188 [label="cat__education_21 <= 0.5\ngini = 0.32\nsamples = 5\nvalue = [4, 1]\nclass = high", fillcolor="#eca06a"] ;
187 -> 188 ;
189 [label="gini = 0.0\nsamples = 2\nvalue = [2, 0]\nclass = high", fillcolor="#e58139"] ;
188 -> 189 ;
190 [label="cat__marital status_Never married <= 0.5\ngini = 0.44\nsamples = 3\nvalue = [2, 1]\nclass = high", fillcolor="#f2c09c"] ;
188 -> 190 ;
191 [label="gini = 0.0\nsamples = 1\nvalue = [1, 0]\nclass = high", fillcolor="#e58139"] ;
190 -> 191 ;
192 [label="gini = 0.5\nsamples = 2\nvalue = [1, 1]\nclass = high", fillcolor="#ffffff"] ;
190 -> 192 ;
193 [label="gini = 0.0\nsamples = 1\nvalue = [0, 1]\nclass = low", fillcolor="#399de5"] ;
187 -> 193 ;
194 [label="gini = 0.0\nsamples = 1\nvalue = [0, 1]\nclass = low", fillcolor="#399de5"] ;
186 -> 194 ;
195 [label="cat__workclass_governmental <= 0.5\ngini = 0.25\nsamples = 281\nvalue = [42, 239]\nclass = low", fillcolor="#5caeea"] ;
89 -> 195 ;
196 [label="cat__education_23 <= 0.5\ngini = 0.22\nsamples = 247\nvalue = [31.0, 216.0]\nclass = low", fillcolor="#55abe9"] ;
195 -> 196 ;
197 [label="cat__education_24 <= 0.5\ngini = 0.21\nsamples = 244\nvalue = [29, 215]\nclass = low", fillcolor="#54aae9"] ;
196 -> 197 ;
198 [label="num__workinghours <= -0.46\ngini = 0.2\nsamples = 243\nvalue = [28, 215]\nclass = low", fillcolor="#53aae8"] ;
197 -> 198 ;
199 [label="gini = 0.0\nsamples = 48\nvalue = [0, 48]\nclass = low", fillcolor="#399de5"] ;
198 -> 199 ;
200 [label="cat__education_22 <= 0.5\ngini = 0.25\nsamples = 195\nvalue = [28.0, 167.0]\nclass = low", fillcolor="#5aade9"] ;
198 -> 200 ;
201 [label="num__age <= -1.18\ngini = 0.23\nsamples = 185\nvalue = [24, 161]\nclass = low", fillcolor="#57ace9"] ;
200 -> 201 ;
202 [label="gini = 0.0\nsamples = 19\nvalue = [0, 19]\nclass = low", fillcolor="#399de5"] ;
201 -> 202 ;
203 [label="cat__occupation_Service/Hospitality <= 0.5\ngini = 0.25\nsamples = 166\nvalue = [24, 142]\nclass = low", fillcolor="#5aaee9"] ;
201 -> 203 ;
204 [label="cat__workclass_self employed <= 0.5\ngini = 0.27\nsamples = 140\nvalue = [23, 117]\nclass = low", fillcolor="#60b0ea"] ;
203 -> 204 ;
205 [label="cat__occupation_Production/Assembly <= 0.5\ngini = 0.26\nsamples = 135\nvalue = [21, 114]\nclass = low", fillcolor="#5dafea"] ;
204 -> 205 ;
206 [label="cat__occupation_Healthcare/Medical Services <= 0.5\ngini = 0.23\nsamples = 106\nvalue = [14, 92]\nclass = low", fillcolor="#57ace9"] ;
205 -> 206 ;
207 [label="cat__education_17 <= 0.5\ngini = 0.19\nsamples = 85\nvalue = [9, 76]\nclass = low", fillcolor="#50a9e8"] ;
206 -> 207 ;
208 [label="cat__occupation_Management/Business <= 0.5\ngini = 0.15\nsamples = 75\nvalue = [6, 69]\nclass = low", fillcolor="#4aa6e7"] ;
207 -> 208 ;
209 [label="cat__education_19 <= 0.5\ngini = 0.11\nsamples = 66\nvalue = [4, 62]\nclass = low", fillcolor="#46a3e7"] ;
208 -> 209 ;
210 [label="cat__occupation_Transport <= 0.5\ngini = 0.08\nsamples = 50\nvalue = [2, 48]\nclass = low", fillcolor="#41a1e6"] ;
209 -> 210 ;
211 [label="cat__occupation_Office/Administrative Support <= 0.5\ngini = 0.05\nsamples = 42\nvalue = [1, 41]\nclass = low", fillcolor="#3e9fe6"] ;
210 -> 211 ;
212 [label="gini = 0.0\nsamples = 29\nvalue = [0, 29]\nclass = low", fillcolor="#399de5"] ;
211 -> 212 ;
213 [label="cat__education_21 <= 0.5\ngini = 0.14\nsamples = 13\nvalue = [1, 12]\nclass = low", fillcolor="#49a5e7"] ;
211 -> 213 ;
214 [label="gini = 0.0\nsamples = 10\nvalue = [0, 10]\nclass = low", fillcolor="#399de5"] ;
213 -> 214 ;
215 [label="num__age <= -1.08\ngini = 0.44\nsamples = 3\nvalue = [1, 2]\nclass = low", fillcolor="#9ccef2"] ;
213 -> 215 ;
216 [label="gini = 0.0\nsamples = 1\nvalue = [0, 1]\nclass = low", fillcolor="#399de5"] ;
215 -> 216 ;
217 [label="num__age <= -0.98\ngini = 0.5\nsamples = 2\nvalue = [1, 1]\nclass = high", fillcolor="#ffffff"] ;
215 -> 217 ;
218 [label="gini = 0.0\nsamples = 1\nvalue = [1, 0]\nclass = high", fillcolor="#e58139"] ;
217 -> 218 ;
219 [label="gini = 0.0\nsamples = 1\nvalue = [0, 1]\nclass = low", fillcolor="#399de5"] ;
217 -> 219 ;
220 [label="num__age <= -0.95\ngini = 0.22\nsamples = 8\nvalue = [1, 7]\nclass = low", fillcolor="#55abe9"] ;
210 -> 220 ;
221 [label="gini = 0.0\nsamples = 7\nvalue = [0, 7]\nclass = low", fillcolor="#399de5"] ;
220 -> 221 ;
222 [label="gini = 0.0\nsamples = 1\nvalue = [1, 0]\nclass = high", fillcolor="#e58139"] ;
220 -> 222 ;
223 [label="num__age <= -1.05\ngini = 0.22\nsamples = 16\nvalue = [2, 14]\nclass = low", fillcolor="#55abe9"] ;
209 -> 223 ;
224 [label="cat__occupation_Sales <= 0.5\ngini = 0.44\nsamples = 3\nvalue = [1, 2]\nclass = low", fillcolor="#9ccef2"] ;
223 -> 224 ;
225 [label="gini = 0.5\nsamples = 2\nvalue = [1, 1]\nclass = high", fillcolor="#ffffff"] ;
224 -> 225 ;
226 [label="gini = 0.0\nsamples = 1\nvalue = [0, 1]\nclass = low", fillcolor="#399de5"] ;
224 -> 226 ;
227 [label="cat__occupation_Construction/Extraction <= 0.5\ngini = 0.14\nsamples = 13\nvalue = [1, 12]\nclass = low", fillcolor="#49a5e7"] ;
223 -> 227 ;
228 [label="gini = 0.0\nsamples = 8\nvalue = [0, 8]\nclass = low", fillcolor="#399de5"] ;
227 -> 228 ;
229 [label="num__workinghours <= -0.14\ngini = 0.32\nsamples = 5\nvalue = [1, 4]\nclass = low", fillcolor="#6ab6ec"] ;
227 -> 229 ;
230 [label="gini = 0.0\nsamples = 2\nvalue = [0, 2]\nclass = low", fillcolor="#399de5"] ;
229 -> 230 ;
231 [label="num__age <= -0.98\ngini = 0.44\nsamples = 3\nvalue = [1, 2]\nclass = low", fillcolor="#9ccef2"] ;
229 -> 231 ;
232 [label="gini = 0.0\nsamples = 2\nvalue = [0, 2]\nclass = low", fillcolor="#399de5"] ;
231 -> 232 ;
233 [label="gini = 0.0\nsamples = 1\nvalue = [1, 0]\nclass = high", fillcolor="#e58139"] ;
231 -> 233 ;
234 [label="cat__education_21 <= 0.5\ngini = 0.35\nsamples = 9\nvalue = [2, 7]\nclass = low", fillcolor="#72b9ec"] ;
208 -> 234 ;
235 [label="gini = 0.0\nsamples = 6\nvalue = [0, 6]\nclass = low", fillcolor="#399de5"] ;
234 -> 235 ;
236 [label="num__age <= -0.95\ngini = 0.44\nsamples = 3\nvalue = [2, 1]\nclass = high", fillcolor="#f2c09c"] ;
234 -> 236 ;
237 [label="gini = 0.0\nsamples = 2\nvalue = [2, 0]\nclass = high", fillcolor="#e58139"] ;
236 -> 237 ;
238 [label="gini = 0.0\nsamples = 1\nvalue = [0, 1]\nclass = low", fillcolor="#399de5"] ;
236 -> 238 ;
239 [label="cat__occupation_Sales <= 0.5\ngini = 0.42\nsamples = 10\nvalue = [3, 7]\nclass = low", fillcolor="#8ec7f0"] ;
207 -> 239 ;
240 [label="num__age <= -1.05\ngini = 0.24\nsamples = 7\nvalue = [1, 6]\nclass = low", fillcolor="#5aade9"] ;
239 -> 240 ;
241 [label="num__workinghours <= -0.14\ngini = 0.5\nsamples = 2\nvalue = [1, 1]\nclass = high", fillcolor="#ffffff"] ;
240 -> 241 ;
242 [label="gini = 0.0\nsamples = 1\nvalue = [0, 1]\nclass = low", fillcolor="#399de5"] ;
241 -> 242 ;
243 [label="gini = 0.0\nsamples = 1\nvalue = [1, 0]\nclass = high", fillcolor="#e58139"] ;
241 -> 243 ;
244 [label="gini = 0.0\nsamples = 5\nvalue = [0, 5]\nclass = low", fillcolor="#399de5"] ;
240 -> 244 ;
245 [label="num__age <= -0.98\ngini = 0.44\nsamples = 3\nvalue = [2, 1]\nclass = high", fillcolor="#f2c09c"] ;
239 -> 245 ;
246 [label="gini = 0.0\nsamples = 1\nvalue = [0, 1]\nclass = low", fillcolor="#399de5"] ;
245 -> 246 ;
247 [label="gini = 0.0\nsamples = 2\nvalue = [2, 0]\nclass = high", fillcolor="#e58139"] ;
245 -> 247 ;
248 [label="cat__education_20 <= 0.5\ngini = 0.36\nsamples = 21\nvalue = [5, 16]\nclass = low", fillcolor="#77bced"] ;
206 -> 248 ;
249 [label="num__age <= -1.05\ngini = 0.24\nsamples = 14\nvalue = [2, 12]\nclass = low", fillcolor="#5aade9"] ;
248 -> 249 ;
250 [label="cat__education_17 <= 0.5\ngini = 0.44\nsamples = 6\nvalue = [2, 4]\nclass = low", fillcolor="#9ccef2"] ;
249 -> 250 ;
251 [label="num__workinghours <= -0.1\ngini = 0.48\nsamples = 5\nvalue = [2, 3]\nclass = low", fillcolor="#bddef6"] ;
250 -> 251 ;
252 [label="num__age <= -1.11\ngini = 0.44\nsamples = 3\nvalue = [1, 2]\nclass = low", fillcolor="#9ccef2"] ;
251 -> 252 ;
253 [label="gini = 0.0\nsamples = 1\nvalue = [1, 0]\nclass = high", fillcolor="#e58139"] ;
252 -> 253 ;
254 [label="gini = 0.0\nsamples = 2\nvalue = [0, 2]\nclass = low", fillcolor="#399de5"] ;
252 -> 254 ;
255 [label="num__age <= -1.11\ngini = 0.5\nsamples = 2\nvalue = [1, 1]\nclass = high", fillcolor="#ffffff"] ;
251 -> 255 ;
256 [label="gini = 0.0\nsamples = 1\nvalue = [0, 1]\nclass = low", fillcolor="#399de5"] ;
255 -> 256 ;
257 [label="gini = 0.0\nsamples = 1\nvalue = [1, 0]\nclass = high", fillcolor="#e58139"] ;
255 -> 257 ;
258 [label="gini = 0.0\nsamples = 1\nvalue = [0, 1]\nclass = low", fillcolor="#399de5"] ;
250 -> 258 ;
259 [label="gini = 0.0\nsamples = 8\nvalue = [0, 8]\nclass = low", fillcolor="#399de5"] ;
249 -> 259 ;
260 [label="num__age <= -0.92\ngini = 0.49\nsamples = 7\nvalue = [3, 4]\nclass = low", fillcolor="#cee6f8"] ;
248 -> 260 ;
261 [label="num__age <= -1.11\ngini = 0.44\nsamples = 6\nvalue = [2, 4]\nclass = low", fillcolor="#9ccef2"] ;
260 -> 261 ;
262 [label="gini = 0.0\nsamples = 1\nvalue = [0, 1]\nclass = low", fillcolor="#399de5"] ;
261 -> 262 ;
263 [label="num__workinghours <= -0.1\ngini = 0.48\nsamples = 5\nvalue = [2, 3]\nclass = low", fillcolor="#bddef6"] ;
261 -> 263 ;
264 [label="gini = 0.0\nsamples = 1\nvalue = [0, 1]\nclass = low", fillcolor="#399de5"] ;
263 -> 264 ;
265 [label="num__age <= -1.02\ngini = 0.5\nsamples = 4\nvalue = [2, 2]\nclass = high", fillcolor="#ffffff"] ;
263 -> 265 ;
266 [label="gini = 0.0\nsamples = 1\nvalue = [1, 0]\nclass = high", fillcolor="#e58139"] ;
265 -> 266 ;
267 [label="gini = 0.44\nsamples = 3\nvalue = [1, 2]\nclass = low", fillcolor="#9ccef2"] ;
265 -> 267 ;
268 [label="gini = 0.0\nsamples = 1\nvalue = [1, 0]\nclass = high", fillcolor="#e58139"] ;
260 -> 268 ;
269 [label="cat__education_21 <= 0.5\ngini = 0.37\nsamples = 29\nvalue = [7, 22]\nclass = low", fillcolor="#78bced"] ;
205 -> 269 ;
270 [label="num__age <= -1.05\ngini = 0.34\nsamples = 28\nvalue = [6, 22]\nclass = low", fillcolor="#6fb8ec"] ;
269 -> 270 ;
271 [label="cat__education_19 <= 0.5\ngini = 0.15\nsamples = 12\nvalue = [1, 11]\nclass = low", fillcolor="#4ba6e7"] ;
270 -> 271 ;
272 [label="gini = 0.0\nsamples = 10\nvalue = [0, 10]\nclass = low", fillcolor="#399de5"] ;
271 -> 272 ;
273 [label="gini = 0.5\nsamples = 2\nvalue = [1, 1]\nclass = high", fillcolor="#ffffff"] ;
271 -> 273 ;
274 [label="num__age <= -0.92\ngini = 0.43\nsamples = 16\nvalue = [5, 11]\nclass = low", fillcolor="#93caf1"] ;
270 -> 274 ;
275 [label="num__age <= -0.98\ngini = 0.5\nsamples = 10\nvalue = [5, 5]\nclass = high", fillcolor="#ffffff"] ;
274 -> 275 ;
276 [label="cat__education_18 <= 0.5\ngini = 0.44\nsamples = 6\nvalue = [2, 4]\nclass = low", fillcolor="#9ccef2"] ;
275 -> 276 ;
277 [label="cat__education_16 <= 0.5\ngini = 0.32\nsamples = 5\nvalue = [1, 4]\nclass = low", fillcolor="#6ab6ec"] ;
276 -> 277 ;
278 [label="gini = 0.0\nsamples = 2\nvalue = [0, 2]\nclass = low", fillcolor="#399de5"] ;
277 -> 278 ;
279 [label="num__workinghours <= -0.1\ngini = 0.44\nsamples = 3\nvalue = [1, 2]\nclass = low", fillcolor="#9ccef2"] ;
277 -> 279 ;
280 [label="gini = 0.0\nsamples = 1\nvalue = [0, 1]\nclass = low", fillcolor="#399de5"] ;
279 -> 280 ;
281 [label="gini = 0.5\nsamples = 2\nvalue = [1, 1]\nclass = high", fillcolor="#ffffff"] ;
279 -> 281 ;
282 [label="gini = 0.0\nsamples = 1\nvalue = [1, 0]\nclass = high", fillcolor="#e58139"] ;
276 -> 282 ;
283 [label="cat__education_18 <= 0.5\ngini = 0.38\nsamples = 4\nvalue = [3, 1]\nclass = high", fillcolor="#eeab7b"] ;
275 -> 283 ;
284 [label="gini = 0.0\nsamples = 3\nvalue = [3, 0]\nclass = high", fillcolor="#e58139"] ;
283 -> 284 ;
285 [label="gini = 0.0\nsamples = 1\nvalue = [0, 1]\nclass = low", fillcolor="#399de5"] ;
283 -> 285 ;
286 [label="gini = 0.0\nsamples = 6\nvalue = [0, 6]\nclass = low", fillcolor="#399de5"] ;
274 -> 286 ;
287 [label="gini = 0.0\nsamples = 1\nvalue = [1, 0]\nclass = high", fillcolor="#e58139"] ;
269 -> 287 ;
288 [label="cat__occupation_Sales <= 0.5\ngini = 0.48\nsamples = 5\nvalue = [2, 3]\nclass = low", fillcolor="#bddef6"] ;
204 -> 288 ;
289 [label="cat__occupation_Entertainment <= 0.5\ngini = 0.38\nsamples = 4\nvalue = [1, 3]\nclass = low", fillcolor="#7bbeee"] ;
288 -> 289 ;
290 [label="gini = 0.0\nsamples = 3\nvalue = [0, 3]\nclass = low", fillcolor="#399de5"] ;
289 -> 290 ;
291 [label="gini = 0.0\nsamples = 1\nvalue = [1, 0]\nclass = high", fillcolor="#e58139"] ;
289 -> 291 ;
292 [label="gini = 0.0\nsamples = 1\nvalue = [1, 0]\nclass = high", fillcolor="#e58139"] ;
288 -> 292 ;
293 [label="cat__education_19 <= 0.5\ngini = 0.07\nsamples = 26\nvalue = [1, 25]\nclass = low", fillcolor="#41a1e6"] ;
203 -> 293 ;
294 [label="gini = 0.0\nsamples = 22\nvalue = [0, 22]\nclass = low", fillcolor="#399de5"] ;
293 -> 294 ;
295 [label="num__age <= -0.92\ngini = 0.38\nsamples = 4\nvalue = [1, 3]\nclass = low", fillcolor="#7bbeee"] ;
293 -> 295 ;
296 [label="cat__ability to speak english_2.0 <= 0.5\ngini = 0.5\nsamples = 2\nvalue = [1, 1]\nclass = high", fillcolor="#ffffff"] ;
295 -> 296 ;
297 [label="gini = 0.0\nsamples = 1\nvalue = [1, 0]\nclass = high", fillcolor="#e58139"] ;
296 -> 297 ;
298 [label="gini = 0.0\nsamples = 1\nvalue = [0, 1]\nclass = low", fillcolor="#399de5"] ;
296 -> 298 ;
299 [label="gini = 0.0\nsamples = 2\nvalue = [0, 2]\nclass = low", fillcolor="#399de5"] ;
295 -> 299 ;
300 [label="cat__ability to speak english_2.0 <= 0.5\ngini = 0.48\nsamples = 10\nvalue = [4, 6]\nclass = low", fillcolor="#bddef6"] ;
200 -> 300 ;
301 [label="cat__occupation_Entertainment <= 0.5\ngini = 0.44\nsamples = 9\nvalue = [3, 6]\nclass = low", fillcolor="#9ccef2"] ;
300 -> 301 ;
302 [label="num__age <= -1.05\ngini = 0.47\nsamples = 8\nvalue = [3, 5]\nclass = low", fillcolor="#b0d8f5"] ;
301 -> 302 ;
303 [label="gini = 0.0\nsamples = 1\nvalue = [1, 0]\nclass = high", fillcolor="#e58139"] ;
302 -> 303 ;
304 [label="num__age <= -0.98\ngini = 0.41\nsamples = 7\nvalue = [2, 5]\nclass = low", fillcolor="#88c4ef"] ;
302 -> 304 ;
305 [label="gini = 0.0\nsamples = 2\nvalue = [0, 2]\nclass = low", fillcolor="#399de5"] ;
304 -> 305 ;
306 [label="cat__occupation_Healthcare/Medical Services <= 0.5\ngini = 0.48\nsamples = 5\nvalue = [2, 3]\nclass = low", fillcolor="#bddef6"] ;
304 -> 306 ;
307 [label="cat__occupation_Management/Business <= 0.5\ngini = 0.38\nsamples = 4\nvalue = [1, 3]\nclass = low", fillcolor="#7bbeee"] ;
306 -> 307 ;
308 [label="gini = 0.0\nsamples = 2\nvalue = [0, 2]\nclass = low", fillcolor="#399de5"] ;
307 -> 308 ;
309 [label="gini = 0.5\nsamples = 2\nvalue = [1, 1]\nclass = high", fillcolor="#ffffff"] ;
307 -> 309 ;
310 [label="gini = 0.0\nsamples = 1\nvalue = [1, 0]\nclass = high", fillcolor="#e58139"] ;
306 -> 310 ;
311 [label="gini = 0.0\nsamples = 1\nvalue = [0, 1]\nclass = low", fillcolor="#399de5"] ;
301 -> 311 ;
312 [label="gini = 0.0\nsamples = 1\nvalue = [1, 0]\nclass = high", fillcolor="#e58139"] ;
300 -> 312 ;
313 [label="gini = 0.0\nsamples = 1\nvalue = [1, 0]\nclass = high", fillcolor="#e58139"] ;
197 -> 313 ;
314 [label="num__workinghours <= -0.86\ngini = 0.44\nsamples = 3\nvalue = [2, 1]\nclass = high", fillcolor="#f2c09c"] ;
196 -> 314 ;
315 [label="gini = 0.0\nsamples = 1\nvalue = [0, 1]\nclass = low", fillcolor="#399de5"] ;
314 -> 315 ;
316 [label="gini = 0.0\nsamples = 2\nvalue = [2, 0]\nclass = high", fillcolor="#e58139"] ;
314 -> 316 ;
317 [label="cat__occupation_Management/Business <= 0.5\ngini = 0.44\nsamples = 34\nvalue = [11, 23]\nclass = low", fillcolor="#98ccf1"] ;
195 -> 317 ;
318 [label="cat__education_17 <= 0.5\ngini = 0.4\nsamples = 32\nvalue = [9, 23]\nclass = low", fillcolor="#86c3ef"] ;
317 -> 318 ;
319 [label="cat__occupation_Transport <= 0.5\ngini = 0.38\nsamples = 31\nvalue = [8, 23]\nclass = low", fillcolor="#7ebfee"] ;
318 -> 319 ;
320 [label="cat__occupation_Office/Administrative Support <= 0.5\ngini = 0.35\nsamples = 27\nvalue = [6, 21]\nclass = low", fillcolor="#72b9ec"] ;
319 -> 320 ;
321 [label="cat__occupation_Counseling/Mental Health Services <= 0.5\ngini = 0.3\nsamples = 22\nvalue = [4, 18]\nclass = low", fillcolor="#65b3eb"] ;
320 -> 321 ;
322 [label="cat__education_20 <= 0.5\ngini = 0.26\nsamples = 20\nvalue = [3, 17]\nclass = low", fillcolor="#5caeea"] ;
321 -> 322 ;
323 [label="num__workinghours <= -0.14\ngini = 0.2\nsamples = 18\nvalue = [2, 16]\nclass = low", fillcolor="#52a9e8"] ;
322 -> 323 ;
324 [label="num__workinghours <= -0.78\ngini = 0.44\nsamples = 3\nvalue = [1, 2]\nclass = low", fillcolor="#9ccef2"] ;
323 -> 324 ;
325 [label="gini = 0.0\nsamples = 2\nvalue = [0, 2]\nclass = low", fillcolor="#399de5"] ;
324 -> 325 ;
326 [label="gini = 0.0\nsamples = 1\nvalue = [1, 0]\nclass = high", fillcolor="#e58139"] ;
324 -> 326 ;
327 [label="cat__education_22 <= 0.5\ngini = 0.12\nsamples = 15\nvalue = [1, 14]\nclass = low", fillcolor="#47a4e7"] ;
323 -> 327 ;
328 [label="gini = 0.0\nsamples = 10\nvalue = [0, 10]\nclass = low", fillcolor="#399de5"] ;
327 -> 328 ;
329 [label="num__age <= -0.98\ngini = 0.32\nsamples = 5\nvalue = [1, 4]\nclass = low", fillcolor="#6ab6ec"] ;
327 -> 329 ;
330 [label="gini = 0.0\nsamples = 3\nvalue = [0, 3]\nclass = low", fillcolor="#399de5"] ;
329 -> 330 ;
331 [label="gini = 0.5\nsamples = 2\nvalue = [1, 1]\nclass = high", fillcolor="#ffffff"] ;
329 -> 331 ;
332 [label="cat__occupation_Protective Services <= 0.5\ngini = 0.5\nsamples = 2\nvalue = [1, 1]\nclass = high", fillcolor="#ffffff"] ;
322 -> 332 ;
333 [label="gini = 0.0\nsamples = 1\nvalue = [0, 1]\nclass = low", fillcolor="#399de5"] ;
332 -> 333 ;
334 [label="gini = 0.0\nsamples = 1\nvalue = [1, 0]\nclass = high", fillcolor="#e58139"] ;
332 -> 334 ;
335 [label="num__age <= -1.05\ngini = 0.5\nsamples = 2\nvalue = [1, 1]\nclass = high", fillcolor="#ffffff"] ;
321 -> 335 ;
336 [label="gini = 0.0\nsamples = 1\nvalue = [0, 1]\nclass = low", fillcolor="#399de5"] ;
335 -> 336 ;
337 [label="gini = 0.0\nsamples = 1\nvalue = [1, 0]\nclass = high", fillcolor="#e58139"] ;
335 -> 337 ;
338 [label="num__age <= -1.05\ngini = 0.48\nsamples = 5\nvalue = [2, 3]\nclass = low", fillcolor="#bddef6"] ;
320 -> 338 ;
339 [label="gini = 0.0\nsamples = 2\nvalue = [2, 0]\nclass = high", fillcolor="#e58139"] ;
338 -> 339 ;
340 [label="gini = 0.0\nsamples = 3\nvalue = [0, 3]\nclass = low", fillcolor="#399de5"] ;
338 -> 340 ;
341 [label="num__age <= -1.02\ngini = 0.5\nsamples = 4\nvalue = [2, 2]\nclass = high", fillcolor="#ffffff"] ;
319 -> 341 ;
342 [label="gini = 0.0\nsamples = 2\nvalue = [0, 2]\nclass = low", fillcolor="#399de5"] ;
341 -> 342 ;
343 [label="gini = 0.0\nsamples = 2\nvalue = [2, 0]\nclass = high", fillcolor="#e58139"] ;
341 -> 343 ;
344 [label="gini = 0.0\nsamples = 1\nvalue = [1, 0]\nclass = high", fillcolor="#e58139"] ;
318 -> 344 ;
345 [label="gini = 0.0\nsamples = 2\nvalue = [2, 0]\nclass = high", fillcolor="#e58139"] ;
317 -> 345 ;
346 [label="num__age <= -1.02\ngini = 0.49\nsamples = 9\nvalue = [5, 4]\nclass = high", fillcolor="#fae6d7"] ;
88 -> 346 ;
347 [label="cat__marital status_Married <= 0.5\ngini = 0.38\nsamples = 4\nvalue = [1, 3]\nclass = low", fillcolor="#7bbeee"] ;
346 -> 347 ;
348 [label="gini = 0.0\nsamples = 2\nvalue = [0, 2]\nclass = low", fillcolor="#399de5"] ;
347 -> 348 ;
349 [label="gini = 0.5\nsamples = 2\nvalue = [1, 1]\nclass = high", fillcolor="#ffffff"] ;
347 -> 349 ;
350 [label="cat__education_19 <= 0.5\ngini = 0.32\nsamples = 5\nvalue = [4, 1]\nclass = high", fillcolor="#eca06a"] ;
346 -> 350 ;
351 [label="gini = 0.0\nsamples = 4\nvalue = [4, 0]\nclass = high", fillcolor="#e58139"] ;
350 -> 351 ;
352 [label="gini = 0.0\nsamples = 1\nvalue = [0, 1]\nclass = low", fillcolor="#399de5"] ;
350 -> 352 ;
353 [label="num__age <= -1.05\ngini = 0.44\nsamples = 39\nvalue = [13, 26]\nclass = low", fillcolor="#9ccef2"] ;
87 -> 353 ;
354 [label="num__workinghours <= 0.14\ngini = 0.23\nsamples = 15\nvalue = [2, 13]\nclass = low", fillcolor="#57ace9"] ;
353 -> 354 ;
355 [label="num__age <= -1.11\ngini = 0.14\nsamples = 13\nvalue = [1, 12]\nclass = low", fillcolor="#49a5e7"] ;
354 -> 355 ;
356 [label="gini = 0.0\nsamples = 9\nvalue = [0, 9]\nclass = low", fillcolor="#399de5"] ;
355 -> 356 ;
357 [label="cat__education_16 <= 0.5\ngini = 0.38\nsamples = 4\nvalue = [1, 3]\nclass = low", fillcolor="#7bbeee"] ;
355 -> 357 ;
358 [label="gini = 0.0\nsamples = 2\nvalue = [0, 2]\nclass = low", fillcolor="#399de5"] ;
357 -> 358 ;
359 [label="gini = 0.5\nsamples = 2\nvalue = [1, 1]\nclass = high", fillcolor="#ffffff"] ;
357 -> 359 ;
360 [label="cat__education_20 <= 0.5\ngini = 0.5\nsamples = 2\nvalue = [1, 1]\nclass = high", fillcolor="#ffffff"] ;
354 -> 360 ;
361 [label="gini = 0.0\nsamples = 1\nvalue = [1, 0]\nclass = high", fillcolor="#e58139"] ;
360 -> 361 ;
362 [label="gini = 0.0\nsamples = 1\nvalue = [0, 1]\nclass = low", fillcolor="#399de5"] ;
360 -> 362 ;
363 [label="cat__workclass_governmental <= 0.5\ngini = 0.5\nsamples = 24\nvalue = [11, 13]\nclass = low", fillcolor="#e1f0fb"] ;
353 -> 363 ;
364 [label="cat__education_20 <= 0.5\ngini = 0.45\nsamples = 20\nvalue = [7, 13]\nclass = low", fillcolor="#a4d2f3"] ;
363 -> 364 ;
365 [label="cat__education_19 <= 0.5\ngini = 0.4\nsamples = 18\nvalue = [5, 13]\nclass = low", fillcolor="#85c3ef"] ;
364 -> 365 ;
366 [label="cat__education_18 <= 0.5\ngini = 0.26\nsamples = 13\nvalue = [2, 11]\nclass = low", fillcolor="#5dafea"] ;
365 -> 366 ;
367 [label="cat__education_16 <= 0.5\ngini = 0.15\nsamples = 12\nvalue = [1, 11]\nclass = low", fillcolor="#4ba6e7"] ;
366 -> 367 ;
368 [label="gini = 0.0\nsamples = 8\nvalue = [0, 8]\nclass = low", fillcolor="#399de5"] ;
367 -> 368 ;
369 [label="num__age <= -0.98\ngini = 0.38\nsamples = 4\nvalue = [1, 3]\nclass = low", fillcolor="#7bbeee"] ;
367 -> 369 ;
370 [label="gini = 0.0\nsamples = 2\nvalue = [0, 2]\nclass = low", fillcolor="#399de5"] ;
369 -> 370 ;
371 [label="num__workinghours <= -0.02\ngini = 0.5\nsamples = 2\nvalue = [1, 1]\nclass = high", fillcolor="#ffffff"] ;
369 -> 371 ;
372 [label="gini = 0.0\nsamples = 1\nvalue = [0, 1]\nclass = low", fillcolor="#399de5"] ;
371 -> 372 ;
373 [label="gini = 0.0\nsamples = 1\nvalue = [1, 0]\nclass = high", fillcolor="#e58139"] ;
371 -> 373 ;
374 [label="gini = 0.0\nsamples = 1\nvalue = [1, 0]\nclass = high", fillcolor="#e58139"] ;
366 -> 374 ;
375 [label="num__age <= -0.98\ngini = 0.48\nsamples = 5\nvalue = [3, 2]\nclass = high", fillcolor="#f6d5bd"] ;
365 -> 375 ;
376 [label="gini = 0.0\nsamples = 2\nvalue = [2, 0]\nclass = high", fillcolor="#e58139"] ;
375 -> 376 ;
377 [label="num__workinghours <= -0.54\ngini = 0.44\nsamples = 3\nvalue = [1, 2]\nclass = low", fillcolor="#9ccef2"] ;
375 -> 377 ;
378 [label="gini = 0.0\nsamples = 1\nvalue = [0, 1]\nclass = low", fillcolor="#399de5"] ;
377 -> 378 ;
379 [label="num__age <= -0.92\ngini = 0.5\nsamples = 2\nvalue = [1, 1]\nclass = high", fillcolor="#ffffff"] ;
377 -> 379 ;
380 [label="gini = 0.0\nsamples = 1\nvalue = [0, 1]\nclass = low", fillcolor="#399de5"] ;
379 -> 380 ;
381 [label="gini = 0.0\nsamples = 1\nvalue = [1, 0]\nclass = high", fillcolor="#e58139"] ;
379 -> 381 ;
382 [label="gini = 0.0\nsamples = 2\nvalue = [2, 0]\nclass = high", fillcolor="#e58139"] ;
364 -> 382 ;
383 [label="gini = 0.0\nsamples = 4\nvalue = [4, 0]\nclass = high", fillcolor="#e58139"] ;
363 -> 383 ;
384 [label="cat__education_21 <= 0.5\ngini = 0.5\nsamples = 45\nvalue = [21, 24]\nclass = low", fillcolor="#e6f3fc"] ;
86 -> 384 ;
385 [label="cat__education_18 <= 0.5\ngini = 0.4\nsamples = 22\nvalue = [6, 16]\nclass = low", fillcolor="#83c2ef"] ;
384 -> 385 ;
386 [label="cat__education_22 <= 0.5\ngini = 0.36\nsamples = 21\nvalue = [5, 16]\nclass = low", fillcolor="#77bced"] ;
385 -> 386 ;
387 [label="num__age <= -1.11\ngini = 0.24\nsamples = 14\nvalue = [2, 12]\nclass = low", fillcolor="#5aade9"] ;
386 -> 387 ;
388 [label="cat__education_20 <= 0.5\ngini = 0.48\nsamples = 5\nvalue = [2, 3]\nclass = low", fillcolor="#bddef6"] ;
387 -> 388 ;
389 [label="num__age <= -1.18\ngini = 0.38\nsamples = 4\nvalue = [1, 3]\nclass = low", fillcolor="#7bbeee"] ;
388 -> 389 ;
390 [label="gini = 0.0\nsamples = 3\nvalue = [0, 3]\nclass = low", fillcolor="#399de5"] ;
389 -> 390 ;
391 [label="gini = 0.0\nsamples = 1\nvalue = [1, 0]\nclass = high", fillcolor="#e58139"] ;
389 -> 391 ;
392 [label="gini = 0.0\nsamples = 1\nvalue = [1, 0]\nclass = high", fillcolor="#e58139"] ;
388 -> 392 ;
393 [label="gini = 0.0\nsamples = 9\nvalue = [0, 9]\nclass = low", fillcolor="#399de5"] ;
387 -> 393 ;
394 [label="cat__workclass_private <= 0.5\ngini = 0.49\nsamples = 7\nvalue = [3, 4]\nclass = low", fillcolor="#cee6f8"] ;
386 -> 394 ;
395 [label="gini = 0.0\nsamples = 2\nvalue = [0, 2]\nclass = low", fillcolor="#399de5"] ;
394 -> 395 ;
396 [label="num__workinghours <= -0.38\ngini = 0.48\nsamples = 5\nvalue = [3, 2]\nclass = high", fillcolor="#f6d5bd"] ;
394 -> 396 ;
397 [label="gini = 0.0\nsamples = 1\nvalue = [0, 1]\nclass = low", fillcolor="#399de5"] ;
396 -> 397 ;
398 [label="cat__marital status_Married <= 0.5\ngini = 0.38\nsamples = 4\nvalue = [3, 1]\nclass = high", fillcolor="#eeab7b"] ;
396 -> 398 ;
399 [label="gini = 0.0\nsamples = 1\nvalue = [1, 0]\nclass = high", fillcolor="#e58139"] ;
398 -> 399 ;
400 [label="cat__ability to speak english_0.0 <= 0.5\ngini = 0.44\nsamples = 3\nvalue = [2, 1]\nclass = high", fillcolor="#f2c09c"] ;
398 -> 400 ;
401 [label="gini = 0.0\nsamples = 1\nvalue = [1, 0]\nclass = high", fillcolor="#e58139"] ;
400 -> 401 ;
402 [label="num__age <= -0.98\ngini = 0.5\nsamples = 2\nvalue = [1, 1]\nclass = high", fillcolor="#ffffff"] ;
400 -> 402 ;
403 [label="gini = 0.0\nsamples = 1\nvalue = [1, 0]\nclass = high", fillcolor="#e58139"] ;
402 -> 403 ;
404 [label="gini = 0.0\nsamples = 1\nvalue = [0, 1]\nclass = low", fillcolor="#399de5"] ;
402 -> 404 ;
405 [label="gini = 0.0\nsamples = 1\nvalue = [1, 0]\nclass = high", fillcolor="#e58139"] ;
385 -> 405 ;
406 [label="num__workinghours <= -0.74\ngini = 0.45\nsamples = 23\nvalue = [15, 8]\nclass = high", fillcolor="#f3c4a3"] ;
384 -> 406 ;
407 [label="gini = 0.0\nsamples = 2\nvalue = [0, 2]\nclass = low", fillcolor="#399de5"] ;
406 -> 407 ;
408 [label="cat__workclass_private <= 0.5\ngini = 0.41\nsamples = 21\nvalue = [15, 6]\nclass = high", fillcolor="#efb388"] ;
406 -> 408 ;
409 [label="gini = 0.0\nsamples = 2\nvalue = [0, 2]\nclass = low", fillcolor="#399de5"] ;
408 -> 409 ;
410 [label="num__age <= -0.98\ngini = 0.33\nsamples = 19\nvalue = [15, 4]\nclass = high", fillcolor="#eca36e"] ;
408 -> 410 ;
411 [label="num__age <= -1.11\ngini = 0.41\nsamples = 14\nvalue = [10, 4]\nclass = high", fillcolor="#efb388"] ;
410 -> 411 ;
412 [label="gini = 0.0\nsamples = 4\nvalue = [4, 0]\nclass = high", fillcolor="#e58139"] ;
411 -> 412 ;
413 [label="num__age <= -1.05\ngini = 0.48\nsamples = 10\nvalue = [6, 4]\nclass = high", fillcolor="#f6d5bd"] ;
411 -> 413 ;
414 [label="gini = 0.44\nsamples = 3\nvalue = [1, 2]\nclass = low", fillcolor="#9ccef2"] ;
413 -> 414 ;
415 [label="cat__marital status_Married <= 0.5\ngini = 0.41\nsamples = 7\nvalue = [5, 2]\nclass = high", fillcolor="#efb388"] ;
413 -> 415 ;
416 [label="num__workinghours <= -0.14\ngini = 0.32\nsamples = 5\nvalue = [4, 1]\nclass = high", fillcolor="#eca06a"] ;
415 -> 416 ;
417 [label="gini = 0.0\nsamples = 1\nvalue = [1, 0]\nclass = high", fillcolor="#e58139"] ;
416 -> 417 ;
418 [label="gini = 0.38\nsamples = 4\nvalue = [3, 1]\nclass = high", fillcolor="#eeab7b"] ;
416 -> 418 ;
419 [label="gini = 0.5\nsamples = 2\nvalue = [1, 1]\nclass = high", fillcolor="#ffffff"] ;
415 -> 419 ;
420 [label="gini = 0.0\nsamples = 5\nvalue = [5, 0]\nclass = high", fillcolor="#e58139"] ;
410 -> 420 ;
421 [label="cat__education_22 <= 0.5\ngini = 0.45\nsamples = 264\nvalue = [90, 174]\nclass = low", fillcolor="#9fd0f2"] ;
85 -> 421 ;
422 [label="cat__marital status_Never married <= 0.5\ngini = 0.44\nsamples = 247\nvalue = [79, 168]\nclass = low", fillcolor="#96cbf1"] ;
421 -> 422 ;
423 [label="num__workinghours <= 3.43\ngini = 0.48\nsamples = 138\nvalue = [54, 84]\nclass = low", fillcolor="#b8dcf6"] ;
422 -> 423 ;
424 [label="cat__occupation_Management/Business <= 0.5\ngini = 0.47\nsamples = 133\nvalue = [49, 84]\nclass = low", fillcolor="#acd6f4"] ;
423 -> 424 ;
425 [label="cat__occupation_Education <= 0.5\ngini = 0.44\nsamples = 117\nvalue = [39, 78]\nclass = low", fillcolor="#9ccef2"] ;
424 -> 425 ;
426 [label="cat__ability to speak english_1.0 <= 0.5\ngini = 0.46\nsamples = 109\nvalue = [39, 70]\nclass = low", fillcolor="#a7d4f3"] ;
425 -> 426 ;
427 [label="cat__occupation_Healthcare/Medical Services <= 0.5\ngini = 0.47\nsamples = 103\nvalue = [39.0, 64.0]\nclass = low", fillcolor="#b2d9f5"] ;
426 -> 427 ;
428 [label="num__workinghours <= 1.22\ngini = 0.48\nsamples = 93\nvalue = [38, 55]\nclass = low", fillcolor="#c2e1f7"] ;
427 -> 428 ;
429 [label="num__age <= -0.92\ngini = 0.46\nsamples = 73\nvalue = [26, 47]\nclass = low", fillcolor="#a7d3f3"] ;
428 -> 429 ;
430 [label="cat__occupation_Production/Assembly <= 0.5\ngini = 0.42\nsamples = 59\nvalue = [18, 41]\nclass = low", fillcolor="#90c8f0"] ;
429 -> 430 ;
431 [label="num__age <= -1.05\ngini = 0.37\nsamples = 45\nvalue = [11, 34]\nclass = low", fillcolor="#79bded"] ;
430 -> 431 ;
432 [label="cat__occupation_Transport <= 0.5\ngini = 0.25\nsamples = 27\nvalue = [4, 23]\nclass = low", fillcolor="#5baeea"] ;
431 -> 432 ;
433 [label="num__age <= -1.18\ngini = 0.15\nsamples = 24\nvalue = [2, 22]\nclass = low", fillcolor="#4ba6e7"] ;
432 -> 433 ;
434 [label="cat__education_21 <= 0.5\ngini = 0.32\nsamples = 10\nvalue = [2, 8]\nclass = low", fillcolor="#6ab6ec"] ;
433 -> 434 ;
435 [label="cat__occupation_Repair/Maintenance <= 0.5\ngini = 0.2\nsamples = 9\nvalue = [1, 8]\nclass = low", fillcolor="#52a9e8"] ;
434 -> 435 ;
436 [label="gini = 0.0\nsamples = 8\nvalue = [0, 8]\nclass = low", fillcolor="#399de5"] ;
435 -> 436 ;
437 [label="gini = 0.0\nsamples = 1\nvalue = [1, 0]\nclass = high", fillcolor="#e58139"] ;
435 -> 437 ;
438 [label="gini = 0.0\nsamples = 1\nvalue = [1, 0]\nclass = high", fillcolor="#e58139"] ;
434 -> 438 ;
439 [label="gini = 0.0\nsamples = 14\nvalue = [0, 14]\nclass = low", fillcolor="#399de5"] ;
433 -> 439 ;
440 [label="cat__workclass_private <= 0.5\ngini = 0.44\nsamples = 3\nvalue = [2, 1]\nclass = high", fillcolor="#f2c09c"] ;
432 -> 440 ;
441 [label="gini = 0.0\nsamples = 2\nvalue = [2, 0]\nclass = high", fillcolor="#e58139"] ;
440 -> 441 ;
442 [label="gini = 0.0\nsamples = 1\nvalue = [0, 1]\nclass = low", fillcolor="#399de5"] ;
440 -> 442 ;
443 [label="cat__occupation_Finance/Accounting <= 0.5\ngini = 0.48\nsamples = 18\nvalue = [7, 11]\nclass = low", fillcolor="#b7dbf6"] ;
431 -> 443 ;
444 [label="cat__education_18 <= 0.5\ngini = 0.46\nsamples = 17\nvalue = [6, 11]\nclass = low", fillcolor="#a5d2f3"] ;
443 -> 444 ;
445 [label="cat__ability to speak english_0.0 <= 0.5\ngini = 0.43\nsamples = 16\nvalue = [5, 11]\nclass = low", fillcolor="#93caf1"] ;
444 -> 445 ;
446 [label="gini = 0.0\nsamples = 1\nvalue = [1, 0]\nclass = high", fillcolor="#e58139"] ;
445 -> 446 ;
447 [label="cat__education_19 <= 0.5\ngini = 0.39\nsamples = 15\nvalue = [4, 11]\nclass = low", fillcolor="#81c1ee"] ;
445 -> 447 ;
448 [label="cat__occupation_Science, Engineering, Technology <= 0.5\ngini = 0.28\nsamples = 12\nvalue = [2, 10]\nclass = low", fillcolor="#61b1ea"] ;
447 -> 448 ;
449 [label="cat__occupation_Sales <= 0.5\ngini = 0.17\nsamples = 11\nvalue = [1, 10]\nclass = low", fillcolor="#4da7e8"] ;
448 -> 449 ;
450 [label="gini = 0.0\nsamples = 9\nvalue = [0, 9]\nclass = low", fillcolor="#399de5"] ;
449 -> 450 ;
451 [label="num__age <= -0.98\ngini = 0.5\nsamples = 2\nvalue = [1, 1]\nclass = high", fillcolor="#ffffff"] ;
449 -> 451 ;
452 [label="gini = 0.0\nsamples = 1\nvalue = [0, 1]\nclass = low", fillcolor="#399de5"] ;
451 -> 452 ;
453 [label="gini = 0.0\nsamples = 1\nvalue = [1, 0]\nclass = high", fillcolor="#e58139"] ;
451 -> 453 ;
454 [label="gini = 0.0\nsamples = 1\nvalue = [1, 0]\nclass = high", fillcolor="#e58139"] ;
448 -> 454 ;
455 [label="cat__workclass_self employed <= 0.5\ngini = 0.44\nsamples = 3\nvalue = [2, 1]\nclass = high", fillcolor="#f2c09c"] ;
447 -> 455 ;
456 [label="num__workinghours <= 0.42\ngini = 0.5\nsamples = 2\nvalue = [1, 1]\nclass = high", fillcolor="#ffffff"] ;
455 -> 456 ;
457 [label="gini = 0.0\nsamples = 1\nvalue = [1, 0]\nclass = high", fillcolor="#e58139"] ;
456 -> 457 ;
458 [label="gini = 0.0\nsamples = 1\nvalue = [0, 1]\nclass = low", fillcolor="#399de5"] ;
456 -> 458 ;
459 [label="gini = 0.0\nsamples = 1\nvalue = [1, 0]\nclass = high", fillcolor="#e58139"] ;
455 -> 459 ;
460 [label="gini = 0.0\nsamples = 1\nvalue = [1, 0]\nclass = high", fillcolor="#e58139"] ;
444 -> 460 ;
461 [label="gini = 0.0\nsamples = 1\nvalue = [1, 0]\nclass = high", fillcolor="#e58139"] ;
443 -> 461 ;
462 [label="cat__education_18 <= 0.5\ngini = 0.5\nsamples = 14\nvalue = [7, 7]\nclass = high", fillcolor="#ffffff"] ;
430 -> 462 ;
463 [label="cat__education_17 <= 0.5\ngini = 0.49\nsamples = 12\nvalue = [7, 5]\nclass = high", fillcolor="#f8dbc6"] ;
462 -> 463 ;
464 [label="num__age <= -1.11\ngini = 0.5\nsamples = 10\nvalue = [5, 5]\nclass = high", fillcolor="#ffffff"] ;
463 -> 464 ;
465 [label="num__workinghours <= 0.78\ngini = 0.44\nsamples = 6\nvalue = [4, 2]\nclass = high", fillcolor="#f2c09c"] ;
464 -> 465 ;
466 [label="num__workinghours <= 0.58\ngini = 0.5\nsamples = 4\nvalue = [2, 2]\nclass = high", fillcolor="#ffffff"] ;
465 -> 466 ;
467 [label="gini = 0.44\nsamples = 3\nvalue = [2, 1]\nclass = high", fillcolor="#f2c09c"] ;
466 -> 467 ;
468 [label="gini = 0.0\nsamples = 1\nvalue = [0, 1]\nclass = low", fillcolor="#399de5"] ;
466 -> 468 ;
469 [label="gini = 0.0\nsamples = 2\nvalue = [2, 0]\nclass = high", fillcolor="#e58139"] ;
465 -> 469 ;
470 [label="num__age <= -0.98\ngini = 0.38\nsamples = 4\nvalue = [1, 3]\nclass = low", fillcolor="#7bbeee"] ;
464 -> 470 ;
471 [label="gini = 0.0\nsamples = 3\nvalue = [0, 3]\nclass = low", fillcolor="#399de5"] ;
470 -> 471 ;
472 [label="gini = 0.0\nsamples = 1\nvalue = [1, 0]\nclass = high", fillcolor="#e58139"] ;
470 -> 472 ;
473 [label="gini = 0.0\nsamples = 2\nvalue = [2, 0]\nclass = high", fillcolor="#e58139"] ;
463 -> 473 ;
474 [label="gini = 0.0\nsamples = 2\nvalue = [0, 2]\nclass = low", fillcolor="#399de5"] ;
462 -> 474 ;
475 [label="cat__education_16 <= 0.5\ngini = 0.49\nsamples = 14\nvalue = [8, 6]\nclass = high", fillcolor="#f8e0ce"] ;
429 -> 475 ;
476 [label="cat__education_21 <= 0.5\ngini = 0.35\nsamples = 9\nvalue = [7, 2]\nclass = high", fillcolor="#eca572"] ;
475 -> 476 ;
477 [label="cat__education_20 <= 0.5\ngini = 0.44\nsamples = 6\nvalue = [4, 2]\nclass = high", fillcolor="#f2c09c"] ;
476 -> 477 ;
478 [label="cat__occupation_Production/Assembly <= 0.5\ngini = 0.48\nsamples = 5\nvalue = [3, 2]\nclass = high", fillcolor="#f6d5bd"] ;
477 -> 478 ;
479 [label="cat__occupation_Sales <= 0.5\ngini = 0.38\nsamples = 4\nvalue = [3, 1]\nclass = high", fillcolor="#eeab7b"] ;
478 -> 479 ;
480 [label="gini = 0.0\nsamples = 2\nvalue = [2, 0]\nclass = high", fillcolor="#e58139"] ;
479 -> 480 ;
481 [label="num__workinghours <= 0.66\ngini = 0.5\nsamples = 2\nvalue = [1, 1]\nclass = high", fillcolor="#ffffff"] ;
479 -> 481 ;
482 [label="gini = 0.0\nsamples = 1\nvalue = [1, 0]\nclass = high", fillcolor="#e58139"] ;
481 -> 482 ;
483 [label="gini = 0.0\nsamples = 1\nvalue = [0, 1]\nclass = low", fillcolor="#399de5"] ;
481 -> 483 ;
484 [label="gini = 0.0\nsamples = 1\nvalue = [0, 1]\nclass = low", fillcolor="#399de5"] ;
478 -> 484 ;
485 [label="gini = 0.0\nsamples = 1\nvalue = [1, 0]\nclass = high", fillcolor="#e58139"] ;
477 -> 485 ;
486 [label="gini = 0.0\nsamples = 3\nvalue = [3, 0]\nclass = high", fillcolor="#e58139"] ;
476 -> 486 ;
487 [label="cat__occupation_Construction/Extraction <= 0.5\ngini = 0.32\nsamples = 5\nvalue = [1, 4]\nclass = low", fillcolor="#6ab6ec"] ;
475 -> 487 ;
488 [label="gini = 0.0\nsamples = 4\nvalue = [0, 4]\nclass = low", fillcolor="#399de5"] ;
487 -> 488 ;
489 [label="gini = 0.0\nsamples = 1\nvalue = [1, 0]\nclass = high", fillcolor="#e58139"] ;
487 -> 489 ;
490 [label="num__age <= -0.92\ngini = 0.48\nsamples = 20\nvalue = [12, 8]\nclass = high", fillcolor="#f6d5bd"] ;
428 -> 490 ;
491 [label="cat__workclass_self employed <= 0.5\ngini = 0.34\nsamples = 14\nvalue = [11, 3]\nclass = high", fillcolor="#eca36f"] ;
490 -> 491 ;
492 [label="cat__education_21 <= 0.5\ngini = 0.26\nsamples = 13\nvalue = [11, 2]\nclass = high", fillcolor="#ea985d"] ;
491 -> 492 ;
493 [label="cat__education_20 <= 0.5\ngini = 0.17\nsamples = 11\nvalue = [10, 1]\nclass = high", fillcolor="#e88e4d"] ;
492 -> 493 ;
494 [label="gini = 0.0\nsamples = 9\nvalue = [9, 0]\nclass = high", fillcolor="#e58139"] ;
493 -> 494 ;
495 [label="num__age <= -1.15\ngini = 0.5\nsamples = 2\nvalue = [1, 1]\nclass = high", fillcolor="#ffffff"] ;
493 -> 495 ;
496 [label="gini = 0.0\nsamples = 1\nvalue = [0, 1]\nclass = low", fillcolor="#399de5"] ;
495 -> 496 ;
497 [label="gini = 0.0\nsamples = 1\nvalue = [1, 0]\nclass = high", fillcolor="#e58139"] ;
495 -> 497 ;
498 [label="cat__occupation_Sales <= 0.5\ngini = 0.5\nsamples = 2\nvalue = [1, 1]\nclass = high", fillcolor="#ffffff"] ;
492 -> 498 ;
499 [label="gini = 0.0\nsamples = 1\nvalue = [1, 0]\nclass = high", fillcolor="#e58139"] ;
498 -> 499 ;
500 [label="gini = 0.0\nsamples = 1\nvalue = [0, 1]\nclass = low", fillcolor="#399de5"] ;
498 -> 500 ;
501 [label="gini = 0.0\nsamples = 1\nvalue = [0, 1]\nclass = low", fillcolor="#399de5"] ;
491 -> 501 ;
502 [label="cat__occupation_Farming, Fishing, Forestry <= 0.5\ngini = 0.28\nsamples = 6\nvalue = [1, 5]\nclass = low", fillcolor="#61b1ea"] ;
490 -> 502 ;
503 [label="gini = 0.0\nsamples = 5\nvalue = [0, 5]\nclass = low", fillcolor="#399de5"] ;
502 -> 503 ;
504 [label="gini = 0.0\nsamples = 1\nvalue = [1, 0]\nclass = high", fillcolor="#e58139"] ;
502 -> 504 ;
505 [label="cat__education_23 <= 0.5\ngini = 0.18\nsamples = 10\nvalue = [1, 9]\nclass = low", fillcolor="#4fa8e8"] ;
427 -> 505 ;
506 [label="gini = 0.0\nsamples = 9\nvalue = [0, 9]\nclass = low", fillcolor="#399de5"] ;
505 -> 506 ;
507 [label="gini = 0.0\nsamples = 1\nvalue = [1, 0]\nclass = high", fillcolor="#e58139"] ;
505 -> 507 ;
508 [label="gini = 0.0\nsamples = 6\nvalue = [0, 6]\nclass = low", fillcolor="#399de5"] ;
426 -> 508 ;
509 [label="gini = 0.0\nsamples = 8\nvalue = [0, 8]\nclass = low", fillcolor="#399de5"] ;
425 -> 509 ;
510 [label="num__workinghours <= 0.78\ngini = 0.47\nsamples = 16\nvalue = [10, 6]\nclass = high", fillcolor="#f5cdb0"] ;
424 -> 510 ;
511 [label="num__age <= -0.98\ngini = 0.49\nsamples = 7\nvalue = [3, 4]\nclass = low", fillcolor="#cee6f8"] ;
510 -> 511 ;
512 [label="cat__workclass_self employed <= 0.5\ngini = 0.48\nsamples = 5\nvalue = [3, 2]\nclass = high", fillcolor="#f6d5bd"] ;
511 -> 512 ;
513 [label="cat__education_21 <= 0.5\ngini = 0.38\nsamples = 4\nvalue = [3, 1]\nclass = high", fillcolor="#eeab7b"] ;
512 -> 513 ;
514 [label="gini = 0.0\nsamples = 1\nvalue = [1, 0]\nclass = high", fillcolor="#e58139"] ;
513 -> 514 ;
515 [label="num__age <= -1.11\ngini = 0.44\nsamples = 3\nvalue = [2, 1]\nclass = high", fillcolor="#f2c09c"] ;
513 -> 515 ;
516 [label="gini = 0.0\nsamples = 1\nvalue = [1, 0]\nclass = high", fillcolor="#e58139"] ;
515 -> 516 ;
517 [label="num__age <= -1.05\ngini = 0.5\nsamples = 2\nvalue = [1, 1]\nclass = high", fillcolor="#ffffff"] ;
515 -> 517 ;
518 [label="gini = 0.0\nsamples = 1\nvalue = [0, 1]\nclass = low", fillcolor="#399de5"] ;
517 -> 518 ;
519 [label="gini = 0.0\nsamples = 1\nvalue = [1, 0]\nclass = high", fillcolor="#e58139"] ;
517 -> 519 ;
520 [label="gini = 0.0\nsamples = 1\nvalue = [0, 1]\nclass = low", fillcolor="#399de5"] ;
512 -> 520 ;
521 [label="gini = 0.0\nsamples = 2\nvalue = [0, 2]\nclass = low", fillcolor="#399de5"] ;
511 -> 521 ;
522 [label="num__age <= -1.05\ngini = 0.35\nsamples = 9\nvalue = [7, 2]\nclass = high", fillcolor="#eca572"] ;
510 -> 522 ;
523 [label="cat__marital status_Married <= 0.5\ngini = 0.44\nsamples = 3\nvalue = [1, 2]\nclass = low", fillcolor="#9ccef2"] ;
522 -> 523 ;
524 [label="gini = 0.0\nsamples = 1\nvalue = [1, 0]\nclass = high", fillcolor="#e58139"] ;
523 -> 524 ;
525 [label="gini = 0.0\nsamples = 2\nvalue = [0, 2]\nclass = low", fillcolor="#399de5"] ;
523 -> 525 ;
526 [label="gini = 0.0\nsamples = 6\nvalue = [6, 0]\nclass = high", fillcolor="#e58139"] ;
522 -> 526 ;
527 [label="gini = 0.0\nsamples = 5\nvalue = [5, 0]\nclass = high", fillcolor="#e58139"] ;
423 -> 527 ;
528 [label="cat__education_21 <= 0.5\ngini = 0.35\nsamples = 109\nvalue = [25, 84]\nclass = low", fillcolor="#74baed"] ;
422 -> 528 ;
529 [label="cat__occupation_Healthcare/Medical Services <= 0.5\ngini = 0.27\nsamples = 80\nvalue = [13, 67]\nclass = low", fillcolor="#5fb0ea"] ;
528 -> 529 ;
530 [label="cat__workclass_self employed <= 0.5\ngini = 0.19\nsamples = 74\nvalue = [8, 66]\nclass = low", fillcolor="#51a9e8"] ;
529 -> 530 ;
531 [label="cat__education_23 <= 0.5\ngini = 0.16\nsamples = 68\nvalue = [6, 62]\nclass = low", fillcolor="#4ca6e8"] ;
530 -> 531 ;
532 [label="cat__occupation_Education <= 0.5\ngini = 0.14\nsamples = 66\nvalue = [5, 61]\nclass = low", fillcolor="#49a5e7"] ;
531 -> 532 ;
533 [label="cat__occupation_Science, Engineering, Technology <= 0.5\ngini = 0.12\nsamples = 64\nvalue = [4, 60]\nclass = low", fillcolor="#46a4e7"] ;
532 -> 533 ;
534 [label="cat__occupation_Repair/Maintenance <= 0.5\ngini = 0.09\nsamples = 62\nvalue = [3, 59]\nclass = low", fillcolor="#43a2e6"] ;
533 -> 534 ;
535 [label="cat__occupation_Sales <= 0.5\ngini = 0.07\nsamples = 58\nvalue = [2, 56]\nclass = low", fillcolor="#40a0e6"] ;
534 -> 535 ;
536 [label="num__age <= -1.18\ngini = 0.04\nsamples = 54\nvalue = [1, 53]\nclass = low", fillcolor="#3d9fe5"] ;
535 -> 536 ;
537 [label="cat__occupation_Production/Assembly <= 0.5\ngini = 0.14\nsamples = 13\nvalue = [1, 12]\nclass = low", fillcolor="#49a5e7"] ;
536 -> 537 ;
538 [label="gini = 0.0\nsamples = 10\nvalue = [0, 10]\nclass = low", fillcolor="#399de5"] ;
537 -> 538 ;
539 [label="cat__education_16 <= 0.5\ngini = 0.44\nsamples = 3\nvalue = [1, 2]\nclass = low", fillcolor="#9ccef2"] ;
537 -> 539 ;
540 [label="gini = 0.0\nsamples = 1\nvalue = [1, 0]\nclass = high", fillcolor="#e58139"] ;
539 -> 540 ;
541 [label="gini = 0.0\nsamples = 2\nvalue = [0, 2]\nclass = low", fillcolor="#399de5"] ;
539 -> 541 ;
542 [label="gini = 0.0\nsamples = 41\nvalue = [0, 41]\nclass = low", fillcolor="#399de5"] ;
536 -> 542 ;
543 [label="cat__education_19 <= 0.5\ngini = 0.38\nsamples = 4\nvalue = [1, 3]\nclass = low", fillcolor="#7bbeee"] ;
535 -> 543 ;
544 [label="gini = 0.0\nsamples = 1\nvalue = [1, 0]\nclass = high", fillcolor="#e58139"] ;
543 -> 544 ;
545 [label="gini = 0.0\nsamples = 3\nvalue = [0, 3]\nclass = low", fillcolor="#399de5"] ;
543 -> 545 ;
546 [label="cat__education_16 <= 0.5\ngini = 0.38\nsamples = 4\nvalue = [1, 3]\nclass = low", fillcolor="#7bbeee"] ;
534 -> 546 ;
547 [label="gini = 0.0\nsamples = 3\nvalue = [0, 3]\nclass = low", fillcolor="#399de5"] ;
546 -> 547 ;
548 [label="gini = 0.0\nsamples = 1\nvalue = [1, 0]\nclass = high", fillcolor="#e58139"] ;
546 -> 548 ;
549 [label="cat__education_16 <= 0.5\ngini = 0.5\nsamples = 2\nvalue = [1, 1]\nclass = high", fillcolor="#ffffff"] ;
533 -> 549 ;
550 [label="gini = 0.0\nsamples = 1\nvalue = [0, 1]\nclass = low", fillcolor="#399de5"] ;
549 -> 550 ;
551 [label="gini = 0.0\nsamples = 1\nvalue = [1, 0]\nclass = high", fillcolor="#e58139"] ;
549 -> 551 ;
552 [label="num__workinghours <= 0.5\ngini = 0.5\nsamples = 2\nvalue = [1, 1]\nclass = high", fillcolor="#ffffff"] ;
532 -> 552 ;
553 [label="gini = 0.0\nsamples = 1\nvalue = [1, 0]\nclass = high", fillcolor="#e58139"] ;
552 -> 553 ;
554 [label="gini = 0.0\nsamples = 1\nvalue = [0, 1]\nclass = low", fillcolor="#399de5"] ;
552 -> 554 ;
555 [label="cat__ability to speak english_0.0 <= 0.5\ngini = 0.5\nsamples = 2\nvalue = [1, 1]\nclass = high", fillcolor="#ffffff"] ;
531 -> 555 ;
556 [label="gini = 0.0\nsamples = 1\nvalue = [1, 0]\nclass = high", fillcolor="#e58139"] ;
555 -> 556 ;
557 [label="gini = 0.0\nsamples = 1\nvalue = [0, 1]\nclass = low", fillcolor="#399de5"] ;
555 -> 557 ;
558 [label="cat__education_17 <= 0.5\ngini = 0.44\nsamples = 6\nvalue = [2, 4]\nclass = low", fillcolor="#9ccef2"] ;
530 -> 558 ;
559 [label="num__workinghours <= 3.67\ngini = 0.32\nsamples = 5\nvalue = [1, 4]\nclass = low", fillcolor="#6ab6ec"] ;
558 -> 559 ;
560 [label="gini = 0.0\nsamples = 4\nvalue = [0, 4]\nclass = low", fillcolor="#399de5"] ;
559 -> 560 ;
561 [label="gini = 0.0\nsamples = 1\nvalue = [1, 0]\nclass = high", fillcolor="#e58139"] ;
559 -> 561 ;
562 [label="gini = 0.0\nsamples = 1\nvalue = [1, 0]\nclass = high", fillcolor="#e58139"] ;
558 -> 562 ;
563 [label="num__workinghours <= 2.27\ngini = 0.28\nsamples = 6\nvalue = [5, 1]\nclass = high", fillcolor="#ea9a61"] ;
529 -> 563 ;
564 [label="gini = 0.0\nsamples = 3\nvalue = [3, 0]\nclass = high", fillcolor="#e58139"] ;
563 -> 564 ;
565 [label="num__age <= -1.05\ngini = 0.44\nsamples = 3\nvalue = [2, 1]\nclass = high", fillcolor="#f2c09c"] ;
563 -> 565 ;
566 [label="gini = 0.0\nsamples = 1\nvalue = [0, 1]\nclass = low", fillcolor="#399de5"] ;
565 -> 566 ;
567 [label="gini = 0.0\nsamples = 2\nvalue = [2, 0]\nclass = high", fillcolor="#e58139"] ;
565 -> 567 ;
568 [label="num__age <= -0.92\ngini = 0.49\nsamples = 29\nvalue = [12, 17]\nclass = low", fillcolor="#c5e2f7"] ;
528 -> 568 ;
569 [label="num__workinghours <= 0.5\ngini = 0.5\nsamples = 25\nvalue = [12, 13]\nclass = low", fillcolor="#f0f7fd"] ;
568 -> 569 ;
570 [label="cat__workclass_governmental <= 0.5\ngini = 0.32\nsamples = 5\nvalue = [4, 1]\nclass = high", fillcolor="#eca06a"] ;
569 -> 570 ;
571 [label="gini = 0.0\nsamples = 4\nvalue = [4, 0]\nclass = high", fillcolor="#e58139"] ;
570 -> 571 ;
572 [label="gini = 0.0\nsamples = 1\nvalue = [0, 1]\nclass = low", fillcolor="#399de5"] ;
570 -> 572 ;
573 [label="num__workinghours <= 0.78\ngini = 0.48\nsamples = 20\nvalue = [8, 12]\nclass = low", fillcolor="#bddef6"] ;
569 -> 573 ;
574 [label="gini = 0.0\nsamples = 4\nvalue = [0, 4]\nclass = low", fillcolor="#399de5"] ;
573 -> 574 ;
575 [label="cat__workclass_self employed <= 0.5\ngini = 0.5\nsamples = 16\nvalue = [8, 8]\nclass = high", fillcolor="#ffffff"] ;
573 -> 575 ;
576 [label="cat__occupation_Management/Business <= 0.5\ngini = 0.49\nsamples = 14\nvalue = [8, 6]\nclass = high", fillcolor="#f8e0ce"] ;
575 -> 576 ;
577 [label="num__age <= -1.11\ngini = 0.5\nsamples = 12\nvalue = [6, 6]\nclass = high", fillcolor="#ffffff"] ;
576 -> 577 ;
578 [label="num__workinghours <= 3.43\ngini = 0.41\nsamples = 7\nvalue = [5, 2]\nclass = high", fillcolor="#efb388"] ;
577 -> 578 ;
579 [label="cat__occupation_Counseling/Mental Health Services <= 0.5\ngini = 0.28\nsamples = 6\nvalue = [5, 1]\nclass = high", fillcolor="#ea9a61"] ;
578 -> 579 ;
580 [label="gini = 0.0\nsamples = 5\nvalue = [5, 0]\nclass = high", fillcolor="#e58139"] ;
579 -> 580 ;
581 [label="gini = 0.0\nsamples = 1\nvalue = [0, 1]\nclass = low", fillcolor="#399de5"] ;
579 -> 581 ;
582 [label="gini = 0.0\nsamples = 1\nvalue = [0, 1]\nclass = low", fillcolor="#399de5"] ;
578 -> 582 ;
583 [label="cat__occupation_Education <= 0.5\ngini = 0.32\nsamples = 5\nvalue = [1, 4]\nclass = low", fillcolor="#6ab6ec"] ;
577 -> 583 ;
584 [label="gini = 0.0\nsamples = 3\nvalue = [0, 3]\nclass = low", fillcolor="#399de5"] ;
583 -> 584 ;
585 [label="gini = 0.5\nsamples = 2\nvalue = [1, 1]\nclass = high", fillcolor="#ffffff"] ;
583 -> 585 ;
586 [label="gini = 0.0\nsamples = 2\nvalue = [2, 0]\nclass = high", fillcolor="#e58139"] ;
576 -> 586 ;
587 [label="gini = 0.0\nsamples = 2\nvalue = [0, 2]\nclass = low", fillcolor="#399de5"] ;
575 -> 587 ;
588 [label="gini = 0.0\nsamples = 4\nvalue = [0, 4]\nclass = low", fillcolor="#399de5"] ;
568 -> 588 ;
589 [label="cat__occupation_Education <= 0.5\ngini = 0.46\nsamples = 17\nvalue = [11, 6]\nclass = high", fillcolor="#f3c6a5"] ;
421 -> 589 ;
590 [label="cat__occupation_Healthcare/Medical Services <= 0.5\ngini = 0.18\nsamples = 10\nvalue = [9, 1]\nclass = high", fillcolor="#e88f4f"] ;
589 -> 590 ;
591 [label="gini = 0.0\nsamples = 9\nvalue = [9, 0]\nclass = high", fillcolor="#e58139"] ;
590 -> 591 ;
592 [label="gini = 0.0\nsamples = 1\nvalue = [0, 1]\nclass = low", fillcolor="#399de5"] ;
590 -> 592 ;
593 [label="cat__marital status_Never married <= 0.5\ngini = 0.41\nsamples = 7\nvalue = [2, 5]\nclass = low", fillcolor="#88c4ef"] ;
589 -> 593 ;
594 [label="gini = 0.0\nsamples = 5\nvalue = [0, 5]\nclass = low", fillcolor="#399de5"] ;
593 -> 594 ;
595 [label="gini = 0.0\nsamples = 2\nvalue = [2, 0]\nclass = high", fillcolor="#e58139"] ;
593 -> 595 ;
596 [label="num__workinghours <= 0.02\ngini = 0.49\nsamples = 6387\nvalue = [2705.0, 3682.0]\nclass = low", fillcolor="#cae5f8"] ;
0 -> 596 [labeldistance=2.5, labelangle=-45, headlabel="False"] ;
597 [label="num__age <= 1.37\ngini = 0.3\nsamples = 1327\nvalue = [248, 1079]\nclass = low", fillcolor="#67b4eb"] ;
596 -> 597 ;
598 [label="cat__education_23 <= 0.5\ngini = 0.23\nsamples = 977\nvalue = [131, 846]\nclass = low", fillcolor="#58ace9"] ;
597 -> 598 ;
599 [label="cat__education_21 <= 0.5\ngini = 0.22\nsamples = 958\nvalue = [119, 839]\nclass = low", fillcolor="#55abe9"] ;
598 -> 599 ;
600 [label="cat__education_22 <= 0.5\ngini = 0.18\nsamples = 786\nvalue = [77, 709]\nclass = low", fillcolor="#4fa8e8"] ;
599 -> 600 ;
601 [label="num__workinghours <= -0.3\ngini = 0.15\nsamples = 728\nvalue = [60, 668]\nclass = low", fillcolor="#4ba6e7"] ;
600 -> 601 ;
602 [label="cat__workclass_private <= 0.5\ngini = 0.12\nsamples = 597\nvalue = [39, 558]\nclass = low", fillcolor="#47a4e7"] ;
601 -> 602 ;
603 [label="num__workinghours <= -0.82\ngini = 0.19\nsamples = 204\nvalue = [22, 182]\nclass = low", fillcolor="#51a9e8"] ;
602 -> 603 ;
604 [label="cat__education_16 <= 0.5\ngini = 0.11\nsamples = 107\nvalue = [6, 101]\nclass = low", fillcolor="#45a3e7"] ;
603 -> 604 ;
605 [label="cat__occupation_Protective Services <= 0.5\ngini = 0.03\nsamples = 74\nvalue = [1, 73]\nclass = low", fillcolor="#3c9ee5"] ;
604 -> 605 ;
606 [label="gini = 0.0\nsamples = 71\nvalue = [0, 71]\nclass = low", fillcolor="#399de5"] ;
605 -> 606 ;
607 [label="cat__education_19 <= 0.5\ngini = 0.44\nsamples = 3\nvalue = [1, 2]\nclass = low", fillcolor="#9ccef2"] ;
605 -> 607 ;
608 [label="gini = 0.0\nsamples = 2\nvalue = [0, 2]\nclass = low", fillcolor="#399de5"] ;
607 -> 608 ;
609 [label="gini = 0.0\nsamples = 1\nvalue = [1, 0]\nclass = high", fillcolor="#e58139"] ;
607 -> 609 ;
610 [label="cat__occupation_Military Services <= 0.5\ngini = 0.26\nsamples = 33\nvalue = [5, 28]\nclass = low", fillcolor="#5caeea"] ;
604 -> 610 ;
611 [label="cat__occupation_Repair/Maintenance <= 0.5\ngini = 0.22\nsamples = 32\nvalue = [4, 28]\nclass = low", fillcolor="#55abe9"] ;
610 -> 611 ;
612 [label="cat__occupation_Management/Business <= 0.5\ngini = 0.14\nsamples = 27\nvalue = [2, 25]\nclass = low", fillcolor="#49a5e7"] ;
611 -> 612 ;
613 [label="cat__occupation_Office/Administrative Support <= 0.5\ngini = 0.08\nsamples = 25\nvalue = [1, 24]\nclass = low", fillcolor="#41a1e6"] ;
612 -> 613 ;
614 [label="gini = 0.0\nsamples = 22\nvalue = [0, 22]\nclass = low", fillcolor="#399de5"] ;
613 -> 614 ;
615 [label="num__age <= 1.04\ngini = 0.44\nsamples = 3\nvalue = [1, 2]\nclass = low", fillcolor="#9ccef2"] ;
613 -> 615 ;
616 [label="gini = 0.0\nsamples = 2\nvalue = [0, 2]\nclass = low", fillcolor="#399de5"] ;
615 -> 616 ;
617 [label="gini = 0.0\nsamples = 1\nvalue = [1, 0]\nclass = high", fillcolor="#e58139"] ;
615 -> 617 ;
618 [label="num__workinghours <= -1.91\ngini = 0.5\nsamples = 2\nvalue = [1, 1]\nclass = high", fillcolor="#ffffff"] ;
612 -> 618 ;
619 [label="gini = 0.0\nsamples = 1\nvalue = [0, 1]\nclass = low", fillcolor="#399de5"] ;
618 -> 619 ;
620 [label="gini = 0.0\nsamples = 1\nvalue = [1, 0]\nclass = high", fillcolor="#e58139"] ;
618 -> 620 ;
621 [label="cat__marital status_Divorced <= 0.5\ngini = 0.48\nsamples = 5\nvalue = [2, 3]\nclass = low", fillcolor="#bddef6"] ;
611 -> 621 ;
622 [label="cat__marital status_Never married <= 0.5\ngini = 0.44\nsamples = 3\nvalue = [2, 1]\nclass = high", fillcolor="#f2c09c"] ;
621 -> 622 ;
623 [label="gini = 0.0\nsamples = 2\nvalue = [2, 0]\nclass = high", fillcolor="#e58139"] ;
622 -> 623 ;
624 [label="gini = 0.0\nsamples = 1\nvalue = [0, 1]\nclass = low", fillcolor="#399de5"] ;
622 -> 624 ;
625 [label="gini = 0.0\nsamples = 2\nvalue = [0, 2]\nclass = low", fillcolor="#399de5"] ;
621 -> 625 ;
626 [label="gini = 0.0\nsamples = 1\nvalue = [1, 0]\nclass = high", fillcolor="#e58139"] ;
610 -> 626 ;
627 [label="cat__workclass_no paid work <= 0.5\ngini = 0.28\nsamples = 97\nvalue = [16, 81]\nclass = low", fillcolor="#60b0ea"] ;
603 -> 627 ;
628 [label="cat__occupation_Entertainment <= 0.5\ngini = 0.26\nsamples = 96\nvalue = [15, 81]\nclass = low", fillcolor="#5eafea"] ;
627 -> 628 ;
629 [label="cat__education_12 <= 0.5\ngini = 0.25\nsamples = 95\nvalue = [14.0, 81.0]\nclass = low", fillcolor="#5baee9"] ;
628 -> 629 ;
630 [label="cat__marital status_Married <= 0.5\ngini = 0.24\nsamples = 94\nvalue = [13, 81]\nclass = low", fillcolor="#59ade9"] ;
629 -> 630 ;
631 [label="cat__education_13 <= 0.5\ngini = 0.09\nsamples = 41\nvalue = [2, 39]\nclass = low", fillcolor="#43a2e6"] ;
630 -> 631 ;
632 [label="num__age <= -0.33\ngini = 0.05\nsamples = 40\nvalue = [1, 39]\nclass = low", fillcolor="#3ea0e6"] ;
631 -> 632 ;
633 [label="cat__education_16 <= 0.5\ngini = 0.18\nsamples = 10\nvalue = [1, 9]\nclass = low", fillcolor="#4fa8e8"] ;
632 -> 633 ;
634 [label="gini = 0.0\nsamples = 7\nvalue = [0, 7]\nclass = low", fillcolor="#399de5"] ;
633 -> 634 ;
635 [label="cat__marital status_Separated <= 0.5\ngini = 0.44\nsamples = 3\nvalue = [1, 2]\nclass = low", fillcolor="#9ccef2"] ;
633 -> 635 ;
636 [label="gini = 0.0\nsamples = 1\nvalue = [1, 0]\nclass = high", fillcolor="#e58139"] ;
635 -> 636 ;
637 [label="gini = 0.0\nsamples = 2\nvalue = [0, 2]\nclass = low", fillcolor="#399de5"] ;
635 -> 637 ;
638 [label="gini = 0.0\nsamples = 30\nvalue = [0, 30]\nclass = low", fillcolor="#399de5"] ;
632 -> 638 ;
639 [label="gini = 0.0\nsamples = 1\nvalue = [1, 0]\nclass = high", fillcolor="#e58139"] ;
631 -> 639 ;
640 [label="cat__occupation_Office/Administrative Support <= 0.5\ngini = 0.33\nsamples = 53\nvalue = [11, 42]\nclass = low", fillcolor="#6db7ec"] ;
630 -> 640 ;
641 [label="cat__education_24 <= 0.5\ngini = 0.3\nsamples = 50\nvalue = [9, 41]\nclass = low", fillcolor="#64b3eb"] ;
640 -> 641 ;
642 [label="num__age <= 0.16\ngini = 0.25\nsamples = 47\nvalue = [7, 40]\nclass = low", fillcolor="#5caeea"] ;
641 -> 642 ;
643 [label="cat__workclass_self employed <= 0.5\ngini = 0.44\nsamples = 15\nvalue = [5, 10]\nclass = low", fillcolor="#9ccef2"] ;
642 -> 643 ;
644 [label="gini = 0.0\nsamples = 4\nvalue = [0, 4]\nclass = low", fillcolor="#399de5"] ;
643 -> 644 ;
645 [label="num__workinghours <= -0.66\ngini = 0.5\nsamples = 11\nvalue = [5, 6]\nclass = low", fillcolor="#deeffb"] ;
643 -> 645 ;
646 [label="cat__education_17 <= 0.5\ngini = 0.44\nsamples = 9\nvalue = [3, 6]\nclass = low", fillcolor="#9ccef2"] ;
645 -> 646 ;
647 [label="cat__education_1 <= 0.5\ngini = 0.38\nsamples = 8\nvalue = [2, 6]\nclass = low", fillcolor="#7bbeee"] ;
646 -> 647 ;
648 [label="cat__education_20 <= 0.5\ngini = 0.24\nsamples = 7\nvalue = [1, 6]\nclass = low", fillcolor="#5aade9"] ;
647 -> 648 ;
649 [label="gini = 0.0\nsamples = 6\nvalue = [0, 6]\nclass = low", fillcolor="#399de5"] ;
648 -> 649 ;
650 [label="gini = 0.0\nsamples = 1\nvalue = [1, 0]\nclass = high", fillcolor="#e58139"] ;
648 -> 650 ;
651 [label="gini = 0.0\nsamples = 1\nvalue = [1, 0]\nclass = high", fillcolor="#e58139"] ;
647 -> 651 ;
652 [label="gini = 0.0\nsamples = 1\nvalue = [1, 0]\nclass = high", fillcolor="#e58139"] ;
646 -> 652 ;
653 [label="gini = 0.0\nsamples = 2\nvalue = [2, 0]\nclass = high", fillcolor="#e58139"] ;
645 -> 653 ;
654 [label="cat__education_19 <= 0.5\ngini = 0.12\nsamples = 32\nvalue = [2, 30]\nclass = low", fillcolor="#46a4e7"] ;
642 -> 654 ;
655 [label="gini = 0.0\nsamples = 24\nvalue = [0, 24]\nclass = low", fillcolor="#399de5"] ;
654 -> 655 ;
656 [label="num__age <= 1.14\ngini = 0.38\nsamples = 8\nvalue = [2, 6]\nclass = low", fillcolor="#7bbeee"] ;
654 -> 656 ;
657 [label="cat__occupation_Sales <= 0.5\ngini = 0.24\nsamples = 7\nvalue = [1, 6]\nclass = low", fillcolor="#5aade9"] ;
656 -> 657 ;
658 [label="gini = 0.0\nsamples = 5\nvalue = [0, 5]\nclass = low", fillcolor="#399de5"] ;
657 -> 658 ;
659 [label="num__age <= 0.72\ngini = 0.5\nsamples = 2\nvalue = [1, 1]\nclass = high", fillcolor="#ffffff"] ;
657 -> 659 ;
660 [label="gini = 0.0\nsamples = 1\nvalue = [1, 0]\nclass = high", fillcolor="#e58139"] ;
659 -> 660 ;
661 [label="gini = 0.0\nsamples = 1\nvalue = [0, 1]\nclass = low", fillcolor="#399de5"] ;
659 -> 661 ;
662 [label="gini = 0.0\nsamples = 1\nvalue = [1, 0]\nclass = high", fillcolor="#e58139"] ;
656 -> 662 ;
663 [label="num__age <= 0.72\ngini = 0.44\nsamples = 3\nvalue = [2, 1]\nclass = high", fillcolor="#f2c09c"] ;
641 -> 663 ;
664 [label="gini = 0.0\nsamples = 1\nvalue = [0, 1]\nclass = low", fillcolor="#399de5"] ;
663 -> 664 ;
665 [label="gini = 0.0\nsamples = 2\nvalue = [2, 0]\nclass = high", fillcolor="#e58139"] ;
663 -> 665 ;
666 [label="num__workinghours <= -0.66\ngini = 0.44\nsamples = 3\nvalue = [2, 1]\nclass = high", fillcolor="#f2c09c"] ;
640 -> 666 ;
667 [label="cat__education_19 <= 0.5\ngini = 0.5\nsamples = 2\nvalue = [1, 1]\nclass = high", fillcolor="#ffffff"] ;
666 -> 667 ;
668 [label="gini = 0.0\nsamples = 1\nvalue = [1, 0]\nclass = high", fillcolor="#e58139"] ;
667 -> 668 ;
669 [label="gini = 0.0\nsamples = 1\nvalue = [0, 1]\nclass = low", fillcolor="#399de5"] ;
667 -> 669 ;
670 [label="gini = 0.0\nsamples = 1\nvalue = [1, 0]\nclass = high", fillcolor="#e58139"] ;
666 -> 670 ;
671 [label="gini = 0.0\nsamples = 1\nvalue = [1, 0]\nclass = high", fillcolor="#e58139"] ;
629 -> 671 ;
672 [label="gini = 0.0\nsamples = 1\nvalue = [1, 0]\nclass = high", fillcolor="#e58139"] ;
628 -> 672 ;
673 [label="gini = 0.0\nsamples = 1\nvalue = [1, 0]\nclass = high", fillcolor="#e58139"] ;
627 -> 673 ;
674 [label="cat__occupation_Repair/Maintenance <= 0.5\ngini = 0.08\nsamples = 393\nvalue = [17, 376]\nclass = low", fillcolor="#42a1e6"] ;
602 -> 674 ;
675 [label="num__age <= 1.17\ngini = 0.07\nsamples = 382\nvalue = [14.0, 368.0]\nclass = low", fillcolor="#41a1e6"] ;
674 -> 675 ;
676 [label="cat__education_13 <= 0.5\ngini = 0.05\nsamples = 339\nvalue = [9, 330]\nclass = low", fillcolor="#3ea0e6"] ;
675 -> 676 ;
677 [label="cat__education_24 <= 0.5\ngini = 0.05\nsamples = 333\nvalue = [8, 325]\nclass = low", fillcolor="#3e9fe6"] ;
676 -> 677 ;
678 [label="cat__occupation_Sales <= 0.5\ngini = 0.04\nsamples = 326\nvalue = [7, 319]\nclass = low", fillcolor="#3d9fe6"] ;
677 -> 678 ;
679 [label="num__workinghours <= -1.1\ngini = 0.03\nsamples = 271\nvalue = [4, 267]\nclass = low", fillcolor="#3c9ee5"] ;
678 -> 679 ;
680 [label="cat__occupation_Office/Administrative Support <= 0.5\ngini = 0.06\nsamples = 136\nvalue = [4, 132]\nclass = low", fillcolor="#3fa0e6"] ;
679 -> 680 ;
681 [label="cat__marital status_Married <= 0.5\ngini = 0.03\nsamples = 120\nvalue = [2, 118]\nclass = low", fillcolor="#3c9fe5"] ;
680 -> 681 ;
682 [label="gini = 0.0\nsamples = 67\nvalue = [0, 67]\nclass = low", fillcolor="#399de5"] ;
681 -> 682 ;
683 [label="num__workinghours <= -1.18\ngini = 0.07\nsamples = 53\nvalue = [2, 51]\nclass = low", fillcolor="#41a1e6"] ;
681 -> 683 ;
684 [label="cat__occupation_Service/Hospitality <= 0.5\ngini = 0.04\nsamples = 47\nvalue = [1, 46]\nclass = low", fillcolor="#3d9fe6"] ;
683 -> 684 ;
685 [label="gini = 0.0\nsamples = 32\nvalue = [0, 32]\nclass = low", fillcolor="#399de5"] ;
684 -> 685 ;
686 [label="num__workinghours <= -1.75\ngini = 0.12\nsamples = 15\nvalue = [1, 14]\nclass = low", fillcolor="#47a4e7"] ;
684 -> 686 ;
687 [label="gini = 0.0\nsamples = 9\nvalue = [0, 9]\nclass = low", fillcolor="#399de5"] ;
686 -> 687 ;
688 [label="num__age <= 0.16\ngini = 0.28\nsamples = 6\nvalue = [1, 5]\nclass = low", fillcolor="#61b1ea"] ;
686 -> 688 ;
689 [label="gini = 0.0\nsamples = 3\nvalue = [0, 3]\nclass = low", fillcolor="#399de5"] ;
688 -> 689 ;
690 [label="num__age <= 0.62\ngini = 0.44\nsamples = 3\nvalue = [1, 2]\nclass = low", fillcolor="#9ccef2"] ;
688 -> 690 ;
691 [label="gini = 0.0\nsamples = 1\nvalue = [1, 0]\nclass = high", fillcolor="#e58139"] ;
690 -> 691 ;
692 [label="gini = 0.0\nsamples = 2\nvalue = [0, 2]\nclass = low", fillcolor="#399de5"] ;
690 -> 692 ;
693 [label="cat__education_20 <= 0.5\ngini = 0.28\nsamples = 6\nvalue = [1, 5]\nclass = low", fillcolor="#61b1ea"] ;
683 -> 693 ;
694 [label="gini = 0.0\nsamples = 5\nvalue = [0, 5]\nclass = low", fillcolor="#399de5"] ;
693 -> 694 ;
695 [label="gini = 0.0\nsamples = 1\nvalue = [1, 0]\nclass = high", fillcolor="#e58139"] ;
693 -> 695 ;
696 [label="num__age <= 0.59\ngini = 0.22\nsamples = 16\nvalue = [2, 14]\nclass = low", fillcolor="#55abe9"] ;
680 -> 696 ;
697 [label="cat__education_19 <= 0.5\ngini = 0.41\nsamples = 7\nvalue = [2, 5]\nclass = low", fillcolor="#88c4ef"] ;
696 -> 697 ;
698 [label="num__workinghours <= -1.34\ngini = 0.28\nsamples = 6\nvalue = [1, 5]\nclass = low", fillcolor="#61b1ea"] ;
697 -> 698 ;
699 [label="gini = 0.0\nsamples = 5\nvalue = [0, 5]\nclass = low", fillcolor="#399de5"] ;
698 -> 699 ;
700 [label="gini = 0.0\nsamples = 1\nvalue = [1, 0]\nclass = high", fillcolor="#e58139"] ;
698 -> 700 ;
701 [label="gini = 0.0\nsamples = 1\nvalue = [1, 0]\nclass = high", fillcolor="#e58139"] ;
697 -> 701 ;
702 [label="gini = 0.0\nsamples = 9\nvalue = [0, 9]\nclass = low", fillcolor="#399de5"] ;
696 -> 702 ;
703 [label="gini = 0.0\nsamples = 135\nvalue = [0, 135]\nclass = low", fillcolor="#399de5"] ;
679 -> 703 ;
704 [label="cat__education_20 <= 0.5\ngini = 0.1\nsamples = 55\nvalue = [3, 52]\nclass = low", fillcolor="#44a3e6"] ;
678 -> 704 ;
705 [label="num__age <= -0.52\ngini = 0.08\nsamples = 51\nvalue = [2, 49]\nclass = low", fillcolor="#41a1e6"] ;
704 -> 705 ;
706 [label="num__workinghours <= -0.46\ngini = 0.24\nsamples = 7\nvalue = [1, 6]\nclass = low", fillcolor="#5aade9"] ;
705 -> 706 ;
707 [label="gini = 0.0\nsamples = 5\nvalue = [0, 5]\nclass = low", fillcolor="#399de5"] ;
706 -> 707 ;
708 [label="cat__education_16 <= 0.5\ngini = 0.5\nsamples = 2\nvalue = [1, 1]\nclass = high", fillcolor="#ffffff"] ;
706 -> 708 ;
709 [label="gini = 0.0\nsamples = 1\nvalue = [1, 0]\nclass = high", fillcolor="#e58139"] ;
708 -> 709 ;
710 [label="gini = 0.0\nsamples = 1\nvalue = [0, 1]\nclass = low", fillcolor="#399de5"] ;
708 -> 710 ;
711 [label="num__age <= 0.59\ngini = 0.04\nsamples = 44\nvalue = [1, 43]\nclass = low", fillcolor="#3e9fe6"] ;
705 -> 711 ;
712 [label="gini = 0.0\nsamples = 29\nvalue = [0, 29]\nclass = low", fillcolor="#399de5"] ;
711 -> 712 ;
713 [label="num__age <= 0.68\ngini = 0.12\nsamples = 15\nvalue = [1, 14]\nclass = low", fillcolor="#47a4e7"] ;
711 -> 713 ;
714 [label="num__workinghours <= -2.03\ngini = 0.5\nsamples = 2\nvalue = [1, 1]\nclass = high", fillcolor="#ffffff"] ;
713 -> 714 ;
715 [label="gini = 0.0\nsamples = 1\nvalue = [0, 1]\nclass = low", fillcolor="#399de5"] ;
714 -> 715 ;
716 [label="gini = 0.0\nsamples = 1\nvalue = [1, 0]\nclass = high", fillcolor="#e58139"] ;
714 -> 716 ;
717 [label="gini = 0.0\nsamples = 13\nvalue = [0, 13]\nclass = low", fillcolor="#399de5"] ;
713 -> 717 ;
718 [label="num__workinghours <= -0.82\ngini = 0.38\nsamples = 4\nvalue = [1, 3]\nclass = low", fillcolor="#7bbeee"] ;
704 -> 718 ;
719 [label="gini = 0.0\nsamples = 1\nvalue = [1, 0]\nclass = high", fillcolor="#e58139"] ;
718 -> 719 ;
720 [label="gini = 0.0\nsamples = 3\nvalue = [0, 3]\nclass = low", fillcolor="#399de5"] ;
718 -> 720 ;
721 [label="cat__occupation_Healthcare/Medical Services <= 0.5\ngini = 0.24\nsamples = 7\nvalue = [1, 6]\nclass = low", fillcolor="#5aade9"] ;
677 -> 721 ;
722 [label="gini = 0.0\nsamples = 6\nvalue = [0, 6]\nclass = low", fillcolor="#399de5"] ;
721 -> 722 ;
723 [label="gini = 0.0\nsamples = 1\nvalue = [1, 0]\nclass = high", fillcolor="#e58139"] ;
721 -> 723 ;
724 [label="cat__marital status_Divorced <= 0.5\ngini = 0.28\nsamples = 6\nvalue = [1, 5]\nclass = low", fillcolor="#61b1ea"] ;
676 -> 724 ;
725 [label="gini = 0.0\nsamples = 5\nvalue = [0, 5]\nclass = low", fillcolor="#399de5"] ;
724 -> 725 ;
726 [label="gini = 0.0\nsamples = 1\nvalue = [1, 0]\nclass = high", fillcolor="#e58139"] ;
724 -> 726 ;
727 [label="cat__occupation_Protective Services <= 0.5\ngini = 0.21\nsamples = 43\nvalue = [5, 38]\nclass = low", fillcolor="#53aae8"] ;
675 -> 727 ;
728 [label="cat__occupation_Science, Engineering, Technology <= 0.5\ngini = 0.17\nsamples = 42\nvalue = [4, 38]\nclass = low", fillcolor="#4ea7e8"] ;
727 -> 728 ;
729 [label="cat__occupation_Counseling/Mental Health Services <= 0.5\ngini = 0.14\nsamples = 41\nvalue = [3, 38]\nclass = low", fillcolor="#49a5e7"] ;
728 -> 729 ;
730 [label="cat__education_20 <= 0.5\ngini = 0.1\nsamples = 39\nvalue = [2, 37]\nclass = low", fillcolor="#44a2e6"] ;
729 -> 730 ;
731 [label="cat__education_18 <= 0.5\ngini = 0.05\nsamples = 36\nvalue = [1, 35]\nclass = low", fillcolor="#3fa0e6"] ;
730 -> 731 ;
732 [label="gini = 0.0\nsamples = 32\nvalue = [0, 32]\nclass = low", fillcolor="#399de5"] ;
731 -> 732 ;
733 [label="cat__occupation_Sales <= 0.5\ngini = 0.38\nsamples = 4\nvalue = [1, 3]\nclass = low", fillcolor="#7bbeee"] ;
731 -> 733 ;
734 [label="gini = 0.0\nsamples = 3\nvalue = [0, 3]\nclass = low", fillcolor="#399de5"] ;
733 -> 734 ;
735 [label="gini = 0.0\nsamples = 1\nvalue = [1, 0]\nclass = high", fillcolor="#e58139"] ;
733 -> 735 ;
736 [label="cat__marital status_Married <= 0.5\ngini = 0.44\nsamples = 3\nvalue = [1, 2]\nclass = low", fillcolor="#9ccef2"] ;
730 -> 736 ;
737 [label="gini = 0.0\nsamples = 1\nvalue = [1, 0]\nclass = high", fillcolor="#e58139"] ;
736 -> 737 ;
738 [label="gini = 0.0\nsamples = 2\nvalue = [0, 2]\nclass = low", fillcolor="#399de5"] ;
736 -> 738 ;
739 [label="cat__education_24 <= 0.5\ngini = 0.5\nsamples = 2\nvalue = [1, 1]\nclass = high", fillcolor="#ffffff"] ;
729 -> 739 ;
740 [label="gini = 0.0\nsamples = 1\nvalue = [1, 0]\nclass = high", fillcolor="#e58139"] ;
739 -> 740 ;
741 [label="gini = 0.0\nsamples = 1\nvalue = [0, 1]\nclass = low", fillcolor="#399de5"] ;
739 -> 741 ;
742 [label="gini = 0.0\nsamples = 1\nvalue = [1, 0]\nclass = high", fillcolor="#e58139"] ;
728 -> 742 ;
743 [label="gini = 0.0\nsamples = 1\nvalue = [1, 0]\nclass = high", fillcolor="#e58139"] ;
727 -> 743 ;
744 [label="num__workinghours <= -1.63\ngini = 0.4\nsamples = 11\nvalue = [3, 8]\nclass = low", fillcolor="#83c2ef"] ;
674 -> 744 ;
745 [label="gini = 0.0\nsamples = 2\nvalue = [2, 0]\nclass = high", fillcolor="#e58139"] ;
744 -> 745 ;
746 [label="cat__marital status_Separated <= 0.5\ngini = 0.2\nsamples = 9\nvalue = [1, 8]\nclass = low", fillcolor="#52a9e8"] ;
744 -> 746 ;
747 [label="gini = 0.0\nsamples = 8\nvalue = [0, 8]\nclass = low", fillcolor="#399de5"] ;
746 -> 747 ;
748 [label="gini = 0.0\nsamples = 1\nvalue = [1, 0]\nclass = high", fillcolor="#e58139"] ;
746 -> 748 ;
749 [label="cat__education_20 <= 0.5\ngini = 0.27\nsamples = 131\nvalue = [21, 110]\nclass = low", fillcolor="#5fb0ea"] ;
601 -> 749 ;
750 [label="cat__education_24 <= 0.5\ngini = 0.18\nsamples = 101\nvalue = [10, 91]\nclass = low", fillcolor="#4fa8e8"] ;
749 -> 750 ;
751 [label="cat__occupation_Finance/Accounting <= 0.5\ngini = 0.15\nsamples = 98\nvalue = [8.0, 90.0]\nclass = low", fillcolor="#4ba6e7"] ;
750 -> 751 ;
752 [label="cat__occupation_Sales <= 0.5\ngini = 0.13\nsamples = 97\nvalue = [7.0, 90.0]\nclass = low", fillcolor="#48a5e7"] ;
751 -> 752 ;
753 [label="cat__occupation_Entertainment <= 0.5\ngini = 0.09\nsamples = 86\nvalue = [4, 82]\nclass = low", fillcolor="#43a2e6"] ;
752 -> 753 ;
754 [label="cat__occupation_Management/Business <= 0.5\ngini = 0.07\nsamples = 83\nvalue = [3, 80]\nclass = low", fillcolor="#40a1e6"] ;
753 -> 754 ;
755 [label="cat__occupation_Production/Assembly <= 0.5\ngini = 0.05\nsamples = 79\nvalue = [2, 77]\nclass = low", fillcolor="#3ea0e6"] ;
754 -> 755 ;
756 [label="cat__education_18 <= 0.5\ngini = 0.03\nsamples = 71\nvalue = [1, 70]\nclass = low", fillcolor="#3c9ee5"] ;
755 -> 756 ;
757 [label="gini = 0.0\nsamples = 57\nvalue = [0, 57]\nclass = low", fillcolor="#399de5"] ;
756 -> 757 ;
758 [label="cat__occupation_Transport <= 0.5\ngini = 0.13\nsamples = 14\nvalue = [1, 13]\nclass = low", fillcolor="#48a5e7"] ;
756 -> 758 ;
759 [label="gini = 0.0\nsamples = 12\nvalue = [0, 12]\nclass = low", fillcolor="#399de5"] ;
758 -> 759 ;
760 [label="num__age <= 0.13\ngini = 0.5\nsamples = 2\nvalue = [1, 1]\nclass = high", fillcolor="#ffffff"] ;
758 -> 760 ;
761 [label="gini = 0.0\nsamples = 1\nvalue = [0, 1]\nclass = low", fillcolor="#399de5"] ;
760 -> 761 ;
762 [label="gini = 0.0\nsamples = 1\nvalue = [1, 0]\nclass = high", fillcolor="#e58139"] ;
760 -> 762 ;
763 [label="num__age <= 0.06\ngini = 0.22\nsamples = 8\nvalue = [1, 7]\nclass = low", fillcolor="#55abe9"] ;
755 -> 763 ;
764 [label="gini = 0.0\nsamples = 1\nvalue = [1, 0]\nclass = high", fillcolor="#e58139"] ;
763 -> 764 ;
765 [label="gini = 0.0\nsamples = 7\nvalue = [0, 7]\nclass = low", fillcolor="#399de5"] ;
763 -> 765 ;
766 [label="cat__education_19 <= 0.5\ngini = 0.38\nsamples = 4\nvalue = [1, 3]\nclass = low", fillcolor="#7bbeee"] ;
754 -> 766 ;
767 [label="gini = 0.0\nsamples = 2\nvalue = [0, 2]\nclass = low", fillcolor="#399de5"] ;
766 -> 767 ;
768 [label="num__workinghours <= -0.06\ngini = 0.5\nsamples = 2\nvalue = [1, 1]\nclass = high", fillcolor="#ffffff"] ;
766 -> 768 ;
769 [label="gini = 0.0\nsamples = 1\nvalue = [1, 0]\nclass = high", fillcolor="#e58139"] ;
768 -> 769 ;
770 [label="gini = 0.0\nsamples = 1\nvalue = [0, 1]\nclass = low", fillcolor="#399de5"] ;
768 -> 770 ;
771 [label="cat__education_19 <= 0.5\ngini = 0.44\nsamples = 3\nvalue = [1, 2]\nclass = low", fillcolor="#9ccef2"] ;
753 -> 771 ;
772 [label="gini = 0.0\nsamples = 2\nvalue = [0, 2]\nclass = low", fillcolor="#399de5"] ;
771 -> 772 ;
773 [label="gini = 0.0\nsamples = 1\nvalue = [1, 0]\nclass = high", fillcolor="#e58139"] ;
771 -> 773 ;
774 [label="num__workinghours <= -0.18\ngini = 0.4\nsamples = 11\nvalue = [3, 8]\nclass = low", fillcolor="#83c2ef"] ;
752 -> 774 ;
775 [label="cat__marital status_Married <= 0.5\ngini = 0.5\nsamples = 6\nvalue = [3, 3]\nclass = high", fillcolor="#ffffff"] ;
774 -> 775 ;
776 [label="gini = 0.0\nsamples = 2\nvalue = [2, 0]\nclass = high", fillcolor="#e58139"] ;
775 -> 776 ;
777 [label="cat__workclass_private <= 0.5\ngini = 0.38\nsamples = 4\nvalue = [1, 3]\nclass = low", fillcolor="#7bbeee"] ;
775 -> 777 ;
778 [label="gini = 0.0\nsamples = 1\nvalue = [1, 0]\nclass = high", fillcolor="#e58139"] ;
777 -> 778 ;
779 [label="gini = 0.0\nsamples = 3\nvalue = [0, 3]\nclass = low", fillcolor="#399de5"] ;
777 -> 779 ;
780 [label="gini = 0.0\nsamples = 5\nvalue = [0, 5]\nclass = low", fillcolor="#399de5"] ;
774 -> 780 ;
781 [label="gini = 0.0\nsamples = 1\nvalue = [1, 0]\nclass = high", fillcolor="#e58139"] ;
751 -> 781 ;
782 [label="num__age <= -0.07\ngini = 0.44\nsamples = 3\nvalue = [2, 1]\nclass = high", fillcolor="#f2c09c"] ;
750 -> 782 ;
783 [label="gini = 0.0\nsamples = 2\nvalue = [2, 0]\nclass = high", fillcolor="#e58139"] ;
782 -> 783 ;
784 [label="gini = 0.0\nsamples = 1\nvalue = [0, 1]\nclass = low", fillcolor="#399de5"] ;
782 -> 784 ;
785 [label="num__age <= 0.42\ngini = 0.46\nsamples = 30\nvalue = [11, 19]\nclass = low", fillcolor="#acd6f4"] ;
749 -> 785 ;
786 [label="cat__marital status_Widowed <= 0.5\ngini = 0.29\nsamples = 17\nvalue = [3, 14]\nclass = low", fillcolor="#63b2eb"] ;
785 -> 786 ;
787 [label="num__workinghours <= -0.14\ngini = 0.22\nsamples = 16\nvalue = [2, 14]\nclass = low", fillcolor="#55abe9"] ;
786 -> 787 ;
788 [label="num__age <= 0.19\ngini = 0.14\nsamples = 13\nvalue = [1, 12]\nclass = low", fillcolor="#49a5e7"] ;
787 -> 788 ;
789 [label="gini = 0.0\nsamples = 8\nvalue = [0, 8]\nclass = low", fillcolor="#399de5"] ;
788 -> 789 ;
790 [label="cat__occupation_Education <= 0.5\ngini = 0.32\nsamples = 5\nvalue = [1, 4]\nclass = low", fillcolor="#6ab6ec"] ;
788 -> 790 ;
791 [label="num__age <= 0.29\ngini = 0.44\nsamples = 3\nvalue = [1, 2]\nclass = low", fillcolor="#9ccef2"] ;
790 -> 791 ;
792 [label="gini = 0.0\nsamples = 1\nvalue = [1, 0]\nclass = high", fillcolor="#e58139"] ;
791 -> 792 ;
793 [label="gini = 0.0\nsamples = 2\nvalue = [0, 2]\nclass = low", fillcolor="#399de5"] ;
791 -> 793 ;
794 [label="gini = 0.0\nsamples = 2\nvalue = [0, 2]\nclass = low", fillcolor="#399de5"] ;
790 -> 794 ;
795 [label="cat__marital status_Married <= 0.5\ngini = 0.44\nsamples = 3\nvalue = [1, 2]\nclass = low", fillcolor="#9ccef2"] ;
787 -> 795 ;
796 [label="gini = 0.0\nsamples = 2\nvalue = [0, 2]\nclass = low", fillcolor="#399de5"] ;
795 -> 796 ;
797 [label="gini = 0.0\nsamples = 1\nvalue = [1, 0]\nclass = high", fillcolor="#e58139"] ;
795 -> 797 ;
798 [label="gini = 0.0\nsamples = 1\nvalue = [1, 0]\nclass = high", fillcolor="#e58139"] ;
786 -> 798 ;
799 [label="cat__marital status_Married <= 0.5\ngini = 0.47\nsamples = 13\nvalue = [8, 5]\nclass = high", fillcolor="#f5d0b5"] ;
785 -> 799 ;
800 [label="cat__occupation_Management/Business <= 0.5\ngini = 0.32\nsamples = 5\nvalue = [1, 4]\nclass = low", fillcolor="#6ab6ec"] ;
799 -> 800 ;
801 [label="gini = 0.0\nsamples = 4\nvalue = [0, 4]\nclass = low", fillcolor="#399de5"] ;
800 -> 801 ;
802 [label="gini = 0.0\nsamples = 1\nvalue = [1, 0]\nclass = high", fillcolor="#e58139"] ;
800 -> 802 ;
803 [label="num__age <= 0.85\ngini = 0.22\nsamples = 8\nvalue = [7, 1]\nclass = high", fillcolor="#e99355"] ;
799 -> 803 ;
804 [label="num__age <= 0.68\ngini = 0.44\nsamples = 3\nvalue = [2, 1]\nclass = high", fillcolor="#f2c09c"] ;
803 -> 804 ;
805 [label="gini = 0.0\nsamples = 2\nvalue = [2, 0]\nclass = high", fillcolor="#e58139"] ;
804 -> 805 ;
806 [label="gini = 0.0\nsamples = 1\nvalue = [0, 1]\nclass = low", fillcolor="#399de5"] ;
804 -> 806 ;
807 [label="gini = 0.0\nsamples = 5\nvalue = [5, 0]\nclass = high", fillcolor="#e58139"] ;
803 -> 807 ;
808 [label="num__workinghours <= -0.3\ngini = 0.41\nsamples = 58\nvalue = [17, 41]\nclass = low", fillcolor="#8bc6f0"] ;
600 -> 808 ;
809 [label="num__age <= 0.85\ngini = 0.34\nsamples = 46\nvalue = [10, 36]\nclass = low", fillcolor="#70b8ec"] ;
808 -> 809 ;
810 [label="cat__occupation_Science, Engineering, Technology <= 0.5\ngini = 0.13\nsamples = 28\nvalue = [2, 26]\nclass = low", fillcolor="#48a5e7"] ;
809 -> 810 ;
811 [label="gini = 0.0\nsamples = 24\nvalue = [0, 24]\nclass = low", fillcolor="#399de5"] ;
810 -> 811 ;
812 [label="cat__ability to speak english_0.0 <= 0.5\ngini = 0.5\nsamples = 4\nvalue = [2, 2]\nclass = high", fillcolor="#ffffff"] ;
810 -> 812 ;
813 [label="gini = 0.0\nsamples = 1\nvalue = [1, 0]\nclass = high", fillcolor="#e58139"] ;
812 -> 813 ;
814 [label="num__age <= 0.23\ngini = 0.44\nsamples = 3\nvalue = [1, 2]\nclass = low", fillcolor="#9ccef2"] ;
812 -> 814 ;
815 [label="gini = 0.0\nsamples = 2\nvalue = [0, 2]\nclass = low", fillcolor="#399de5"] ;
814 -> 815 ;
816 [label="gini = 0.0\nsamples = 1\nvalue = [1, 0]\nclass = high", fillcolor="#e58139"] ;
814 -> 816 ;
817 [label="num__workinghours <= -1.75\ngini = 0.49\nsamples = 18\nvalue = [8, 10]\nclass = low", fillcolor="#d7ebfa"] ;
809 -> 817 ;
818 [label="cat__occupation_Counseling/Mental Health Services <= 0.5\ngini = 0.22\nsamples = 8\nvalue = [1, 7]\nclass = low", fillcolor="#55abe9"] ;
817 -> 818 ;
819 [label="gini = 0.0\nsamples = 7\nvalue = [0, 7]\nclass = low", fillcolor="#399de5"] ;
818 -> 819 ;
820 [label="gini = 0.0\nsamples = 1\nvalue = [1, 0]\nclass = high", fillcolor="#e58139"] ;
818 -> 820 ;
821 [label="cat__workclass_governmental <= 0.5\ngini = 0.42\nsamples = 10\nvalue = [7, 3]\nclass = high", fillcolor="#f0b78e"] ;
817 -> 821 ;
822 [label="cat__workclass_private <= 0.5\ngini = 0.5\nsamples = 6\nvalue = [3, 3]\nclass = high", fillcolor="#ffffff"] ;
821 -> 822 ;
823 [label="cat__occupation_Protective Services <= 0.5\ngini = 0.38\nsamples = 4\nvalue = [1, 3]\nclass = low", fillcolor="#7bbeee"] ;
822 -> 823 ;
824 [label="gini = 0.0\nsamples = 3\nvalue = [0, 3]\nclass = low", fillcolor="#399de5"] ;
823 -> 824 ;
825 [label="gini = 0.0\nsamples = 1\nvalue = [1, 0]\nclass = high", fillcolor="#e58139"] ;
823 -> 825 ;
826 [label="gini = 0.0\nsamples = 2\nvalue = [2, 0]\nclass = high", fillcolor="#e58139"] ;
822 -> 826 ;
827 [label="gini = 0.0\nsamples = 4\nvalue = [4, 0]\nclass = high", fillcolor="#e58139"] ;
821 -> 827 ;
828 [label="num__age <= -0.23\ngini = 0.49\nsamples = 12\nvalue = [7, 5]\nclass = high", fillcolor="#f8dbc6"] ;
808 -> 828 ;
829 [label="num__workinghours <= -0.18\ngini = 0.32\nsamples = 5\nvalue = [1, 4]\nclass = low", fillcolor="#6ab6ec"] ;
828 -> 829 ;
830 [label="gini = 0.0\nsamples = 1\nvalue = [1, 0]\nclass = high", fillcolor="#e58139"] ;
829 -> 830 ;
831 [label="gini = 0.0\nsamples = 4\nvalue = [0, 4]\nclass = low", fillcolor="#399de5"] ;
829 -> 831 ;
832 [label="cat__occupation_Healthcare/Medical Services <= 0.5\ngini = 0.24\nsamples = 7\nvalue = [6, 1]\nclass = high", fillcolor="#e9965a"] ;
828 -> 832 ;
833 [label="gini = 0.0\nsamples = 5\nvalue = [5, 0]\nclass = high", fillcolor="#e58139"] ;
832 -> 833 ;
834 [label="num__age <= 0.26\ngini = 0.5\nsamples = 2\nvalue = [1, 1]\nclass = high", fillcolor="#ffffff"] ;
832 -> 834 ;
835 [label="gini = 0.0\nsamples = 1\nvalue = [1, 0]\nclass = high", fillcolor="#e58139"] ;
